5710 64
未见异常 0.105281 -0.277788 0.064733 -0.382047 0.445588 0.851053 -0.136445 -0.786854 -0.457691 0.265592 -0.704516 -0.831073 0.332897 0.061195 0.419057 0.007379 0.398810 -0.250678 0.014902 -0.402197 0.676905 -0.003976 -0.269573 -0.009059 0.410648 0.176812 0.293054 -0.389805 -1.047755 -0.608442 -0.202756 -0.262670 0.134567 0.157270 -0.238331 0.426853 -0.004396 0.335196 -0.581172 0.604206 -0.947880 0.495277 -0.286226 -0.488705 0.000160 0.084743 -0.213615 0.461953 0.322128 -0.347879 1.957593 0.619929 -0.423527 -0.992031 0.324213 0.456093 -0.042116 -0.691113 -0.712056 -0.202558 0.001436 0.069685 0.472874 -0.919802
正常 0.297231 -1.278421 -0.309083 0.242000 -0.558061 0.626145 -0.151029 0.642898 0.370850 -0.095032 -0.586698 -0.649265 -0.151409 -0.225274 0.087149 0.039008 0.007851 -0.301773 0.245360 0.191731 0.387305 -0.086105 -0.222842 0.449036 -0.403601 0.835763 0.099923 0.063742 -0.458004 -0.391256 -0.311230 0.156786 -0.161312 -0.431484 -0.330691 0.296396 0.667936 -0.565744 0.405576 -0.437055 0.258561 0.607487 0.062208 0.070427 0.739411 -0.040071 -0.231812 0.279601 -0.269541 -0.071703 -0.025304 0.210487 0.286165 -0.405967 -0.407268 0.936711 0.236252 0.228790 0.583851 -0.908448 0.582638 -0.644567 0.138452 -1.117287
无 0.767774 0.725660 0.829626 -0.182563 0.480148 0.121188 -0.050170 -0.171757 0.130895 -0.077646 -0.678851 -0.113532 0.742466 0.463248 -0.194473 0.971629 0.059093 0.503043 -0.050734 0.213555 -0.328114 0.279987 0.399874 0.150695 0.230851 0.240134 0.114348 0.016535 -1.941515 -0.820523 -0.584467 -0.076743 -0.670217 0.255393 0.021704 -0.018438 -0.559254 -0.198087 -0.077187 -0.144863 -0.422586 -0.101080 -0.100690 -0.155806 0.150399 0.381522 0.016529 -0.483469 -0.035886 0.803450 -0.185934 0.417252 -0.405609 -0.384382 0.522782 -0.094326 0.468111 -0.873398 0.277013 -0.648030 0.296737 -0.405802 -1.034323 0.238242
回声 -0.051001 -0.842548 -0.359722 0.397229 0.181569 0.433093 -0.472406 0.015183 0.093013 -0.403079 -0.543184 0.039758 -0.098599 0.035989 0.476604 0.577383 -0.645518 0.097962 -0.096485 -0.388687 -0.205170 0.798864 -0.523246 0.495674 -0.144369 0.364510 -0.137204 -0.288005 -0.260715 0.052301 -0.446720 -0.104810 -0.193470 -0.818000 -0.047499 0.129090 0.924176 -0.492118 0.364696 -0.813013 0.538417 0.533008 0.748280 0.095960 0.593692 -0.349950 0.036247 0.600142 0.164407 0.374712 -0.197588 0.368327 0.117677 -0.091356 -0.451067 0.818794 0.329765 0.625264 0.098066 -0.120218 0.277182 -0.300635 -0.673772 -0.550472
形态 0.414747 -0.950181 -0.592210 0.088310 -0.167942 0.226894 -0.227451 -0.163876 -0.345006 -0.113630 -0.558020 0.128262 -0.078924 -0.078238 0.004370 0.056632 0.112926 -0.853207 -0.366751 -0.398607 0.018398 -0.450017 -0.198281 0.125251 -0.381698 0.130569 -0.078270 -0.035621 -0.522707 -0.562559 -0.081453 0.582319 -0.895215 -0.536707 0.039317 0.342805 0.003084 -0.598723 0.309079 -0.254301 0.430584 -0.247485 1.459571 -0.375728 0.161714 0.219279 0.134583 0.508260 0.152414 0.442696 -0.431361 -0.092734 -0.139442 0.201846 0.437580 1.003177 -0.022253 0.471757 -0.047721 0.001500 0.193735 -0.184816 -0.217227 -0.615337
明显 -0.203247 0.314022 -0.248750 -0.266479 0.533420 0.857318 0.563762 -0.437885 -0.246290 -0.068059 -0.630000 -0.780681 0.243806 -0.196410 -0.022423 -0.169128 0.218202 0.162092 -0.121634 -0.211496 -0.247909 0.504796 -0.158204 -0.928521 0.194315 -0.091016 0.413286 -0.199899 -0.875644 0.247054 -0.402787 -0.451863 -0.704150 0.467174 0.247622 0.244069 -0.440961 0.017401 -0.587785 0.479638 -0.572877 0.108725 0.497477 0.125574 -0.217978 -0.457150 -0.400116 0.237932 -0.589438 -0.210559 0.269357 -0.124001 0.875657 -0.447712 0.031898 0.418345 -0.006617 -0.235435 -0.669220 -0.012581 0.670792 -0.199835 -0.126930 -0.478249
大小 0.247679 -0.873138 0.129909 -0.015626 -0.328879 0.650339 -0.406520 -0.060231 -0.354416 0.326336 -0.435580 -0.142102 -0.000518 -0.312108 -0.187630 0.404526 0.074508 -0.029968 -0.956165 -0.180828 0.243888 0.488523 -0.770626 -0.020838 0.487007 0.083565 -0.416486 0.504485 -0.278693 -0.321791 -0.047839 0.154204 -0.170339 0.250570 0.163421 -0.266896 0.224194 -0.091157 0.082082 -0.199723 -0.097347 0.278422 -0.149093 0.136072 0.260474 -0.451279 -0.588530 0.587272 -0.506282 0.084984 -0.523346 -0.709822 -0.075737 0.022564 0.757289 0.364348 0.617802 -0.547028 0.223242 -0.002702 -0.129511 0.273436 -0.708113 -0.103541
未见 0.662964 0.272654 -0.138168 0.094394 0.066560 0.353692 0.110200 -1.190818 -0.711889 0.421043 -1.029642 -0.445527 0.482534 -0.342353 0.464167 0.231617 0.035614 -0.170829 -0.278919 -0.205371 0.137513 -0.264950 -0.042224 -0.675957 0.097324 -0.085468 -0.234266 -0.205451 -1.280150 -0.537875 0.259739 -0.392070 0.122025 -0.017341 0.629379 0.168070 -0.374611 0.218663 -0.586075 0.709179 0.050861 0.521493 -0.046024 -0.042895 -0.079455 -0.746998 -0.080425 -0.018868 -0.066734 -0.255806 0.163037 0.367593 0.790384 -0.321524 0.668352 0.407609 -0.109815 -0.093686 -0.167214 0.074326 0.502152 -0.461338 -0.344991 -0.039211
异常 0.212786 0.048680 -0.219372 -0.119284 -0.141197 1.087451 0.762986 -1.135301 0.175112 0.384744 -0.189266 -0.536772 -0.172503 -0.461498 0.040232 0.067565 0.045133 -0.482077 0.083761 -0.219629 0.147544 0.132972 -0.537755 -0.985200 0.126281 0.134433 0.192771 -0.454136 -1.033688 -0.310947 -0.379126 -0.867847 -0.274311 -0.264346 0.150044 -0.625859 -0.246620 0.203174 -0.540121 1.208189 -0.642369 0.492721 0.468274 0.229597 -0.293514 0.382606 0.070777 -0.121044 -0.441823 -0.282962 0.395000 -0.441211 0.584196 -0.667876 -0.023607 0.535374 0.116706 -0.735711 -0.289648 -0.115054 0.208902 -0.381432 -0.223430 -0.771878
均匀 0.400705 -0.237328 -0.355640 0.095408 -0.449791 0.829602 0.299435 -0.346964 -0.436135 0.346943 -0.878271 -0.396069 -0.013875 0.285993 0.037085 0.462376 -0.315073 0.275737 -0.509383 -0.229825 0.400433 0.445808 -0.645952 0.196354 -0.017033 -0.121239 -0.418785 -0.382379 -0.103602 0.679020 0.136413 -0.032131 -0.668471 -0.201138 0.352220 0.332261 0.264957 0.197360 0.509798 -0.742352 0.042999 -0.420341 -0.242501 -0.717429 0.586040 0.532861 -0.330990 0.409184 -0.294251 0.684926 0.435159 -0.323173 0.375421 0.063688 0.527993 0.978251 0.140757 -0.617659 0.487258 -0.703400 -0.156518 -0.652624 -0.093266 -0.082219
包膜 -0.363756 -0.765877 -0.351551 -0.010633 0.175332 0.072670 0.065838 -0.652876 0.250630 0.257204 -1.120588 -0.401821 -0.541631 0.044758 -0.042305 0.481777 0.222337 -0.645757 -0.040790 0.274511 0.924992 0.698080 -0.367505 0.811159 0.036116 -0.440528 -0.626582 0.523379 -0.442684 1.040082 -0.174789 0.307647 -0.305485 0.664347 0.287617 0.607743 0.755287 -0.610879 -0.551996 -0.643961 -0.249195 -0.039432 0.008004 -0.395391 0.638806 0.247387 -0.605852 -0.434390 0.361536 0.614088 -0.421841 -0.178213 0.344079 -0.309760 0.600707 0.574958 0.060546 -0.416504 0.039447 -0.196589 -0.166255 -0.410014 -0.583748 -0.483546
轮廓 0.510688 -1.003145 -0.689413 -0.127938 -0.053273 0.320825 0.016888 -0.227770 0.405080 -0.466535 -0.555179 -0.312521 -0.270443 -0.352084 0.484556 0.712683 -0.623972 -0.109511 0.028929 0.233061 0.028686 0.198130 0.459864 1.105145 -0.846966 -0.351140 0.556678 0.581137 -0.535012 0.455451 -0.385240 -0.062985 0.672836 -0.981004 -0.308842 -0.010708 1.066146 0.104792 0.689630 -1.095470 0.975908 0.548280 1.293462 0.121367 0.436976 0.271902 -0.503711 0.665182 -0.334369 0.797120 0.146330 -0.015646 -0.289231 -0.158414 -0.030976 1.043328 0.617277 -0.089304 -0.126668 -0.210626 -0.043662 -0.907315 -0.905147 -0.377229
光滑 0.412543 -0.339844 0.095515 -0.535329 -0.035767 0.197009 0.473100 0.119934 0.304081 -0.657621 -0.775962 -0.354143 -0.663968 0.827060 0.115215 0.381370 -0.264772 -0.974714 -0.252735 -0.360791 -0.261745 0.081495 -0.421720 0.465865 -0.011717 -0.101006 0.032966 -0.292738 -0.307953 -0.188341 -0.196786 0.263009 -0.388081 0.733775 0.389384 -0.277219 -0.367124 -0.490546 -0.222245 0.021507 0.700238 1.169799 -0.876837 0.103722 0.558527 0.419074 -0.822116 0.863892 -0.034404 0.852612 -0.715520 -0.524126 0.127786 -0.029627 0.631145 -0.104399 0.316508 -0.304392 0.223332 -0.354935 0.638101 -0.071485 -0.032685 -0.501836
光整 0.963594 -0.079022 0.072434 -0.730195 1.117728 0.148663 0.369132 -0.679581 0.083768 -0.873165 -0.925468 -0.191051 -1.467858 -0.073866 -0.457434 0.466929 -0.320010 -0.027710 0.073766 -0.019336 -0.263368 0.674647 -0.689908 0.759175 0.211375 0.088911 0.182097 -0.092101 -0.063044 0.477081 -0.416733 0.127631 0.161638 0.156154 0.671168 0.084295 0.234331 0.299738 0.053497 -0.667902 0.069441 0.012738 0.374051 -0.494108 0.861253 0.505281 -0.549022 1.005814 0.149945 0.650370 -0.655990 -0.178134 0.210588 -0.366220 0.419812 0.089556 -0.151170 -0.639140 -0.230132 -0.664896 -0.630162 -0.103435 -0.461873 -0.783544
实质 0.424487 -0.150810 -0.402006 0.670580 0.196199 0.604315 0.814544 0.110450 -0.931103 -0.084036 -0.552915 -0.526256 -0.595938 0.231149 -0.145267 0.602884 -0.642992 0.418945 0.240659 0.033429 0.591550 0.478828 -0.374265 -0.419294 -0.397359 -0.673004 -0.370458 0.305875 -0.153196 -0.015887 -0.045350 0.470144 -0.273720 0.431649 0.479323 0.615287 0.110077 -0.433562 -0.083853 0.657575 -0.144000 -0.083477 0.744977 -0.228149 0.141076 -0.105551 -0.085540 0.316559 0.058980 -0.251011 -0.039572 0.029746 0.191841 -0.674455 0.384611 0.335796 0.454644 -0.463266 -0.135898 -0.193715 -0.630275 -0.142778 -0.976846 -0.284166
未 -0.859480 0.169883 -0.336203 0.160751 0.348866 1.073869 0.301613 -0.923647 -0.103998 -0.309453 -1.472123 0.487095 0.360403 -0.143836 -1.150229 -0.096778 -0.300330 0.285111 0.398024 -0.048075 0.172837 -0.294684 -0.244670 -0.364937 -0.180173 -0.870098 0.221682 -0.570879 -0.832393 -0.651528 -0.363150 -0.275262 0.540442 -0.056168 0.425507 -0.219944 0.781271 0.580815 1.359013 1.451318 -0.349569 0.151610 -0.232864 -0.635097 -0.809739 -0.143716 0.546997 0.915673 -0.782168 0.474555 -0.044074 0.320548 0.428188 -1.085510 0.048280 0.233486 0.523689 -0.537201 0.142738 -0.052111 0.611034 -0.149752 0.487270 -0.784715
增强 0.842991 -0.806162 -0.578283 0.291909 -0.250001 0.646377 -0.427150 -0.162102 0.833680 -0.034475 -0.407227 -0.269455 0.225269 -0.329137 0.547217 0.549594 -0.980186 -0.249521 0.472525 -0.267098 0.999574 0.446269 -0.457068 0.689731 -0.773121 0.263971 -0.123131 -0.391639 -0.933098 0.720273 -0.781172 -0.600024 0.095484 -0.455187 0.406482 -0.435040 -0.100201 -0.758068 0.922739 -0.478572 1.015753 0.211214 0.334375 1.159525 0.484322 0.377954 -0.558101 0.360606 0.389014 0.147919 0.472038 -0.222949 -0.309594 0.417861 -0.463347 1.479203 0.387669 0.188504 0.131696 -0.026066 -0.140410 0.738091 -0.114759 -0.528765
肾 -0.189854 -0.547673 -0.670187 0.531100 0.016080 0.780648 0.708016 -0.486517 -0.430763 0.241105 -0.772705 -0.145062 -0.192297 0.042609 0.593752 0.026771 -0.788622 -0.866778 -0.333224 -0.096072 0.027793 0.969795 0.227342 0.905206 0.147847 -0.681216 0.537764 -0.024804 -0.028084 0.259190 -0.248387 0.193211 -0.203115 0.289513 0.084103 0.675804 0.304547 -0.003971 -0.102700 0.262869 0.412557 -0.224269 -0.042024 0.302735 0.248808 0.570750 -0.332195 -0.143959 -0.041923 0.518962 -0.386022 0.636036 0.632750 -0.268933 -0.064326 0.313168 -0.093435 -0.400128 0.321321 -0.430225 0.052668 0.399543 -0.571556 -0.087407
分布 0.557388 -0.187412 0.228573 -0.016593 1.036102 0.613212 -0.070401 -0.623131 0.400416 0.058129 -1.015915 0.101314 0.473639 0.166279 0.615444 0.405629 -0.456650 0.316102 0.785028 -1.195104 0.595103 0.014695 0.013051 0.623679 -1.019267 0.327042 0.681529 0.466541 -0.408530 0.220083 -0.936265 0.077313 -0.375763 -0.695274 -0.589048 0.427296 0.551259 -1.117143 0.262233 -1.387109 1.213403 0.735589 1.008944 0.445326 0.679856 0.123843 -0.040307 0.493257 0.360362 0.597099 0.177093 0.033691 -0.093846 0.445551 0.215556 0.870427 -0.229526 0.229885 0.187571 -0.734285 0.158031 0.107671 -0.919774 -0.776162
检查 0.406267 -0.389290 0.185660 -0.162317 0.740819 0.420996 -0.062483 0.189083 -0.315104 -0.049060 -0.629719 0.443202 1.106505 -0.280892 0.141069 0.055177 -0.602421 -0.412548 0.191280 -0.065052 0.534170 0.604834 -0.331138 -0.311528 -0.742742 -0.106325 0.382885 -0.828102 -1.103970 0.833856 0.134594 0.387848 -0.241291 0.561577 -0.735638 0.382051 0.639297 -0.008393 1.028916 0.749486 0.042678 0.597523 -0.053006 -0.680645 -0.443950 0.125835 -0.128801 0.489163 0.035314 0.628339 1.333740 0.930739 -0.598391 -0.489776 -0.133043 0.299831 -0.389404 -0.419708 -0.478059 0.018344 -0.000581 0.867397 -0.159050 -0.173980
系统 0.122554 -0.490478 -0.805473 0.926656 -0.027454 0.086784 0.921568 -0.234597 -0.972628 0.221959 0.046846 0.073711 1.003204 -0.491648 0.657634 0.044265 -0.535150 -0.482838 -0.009575 -0.068677 -0.118893 0.343002 -0.280428 0.164648 0.241660 0.016117 -0.162535 -0.725784 -0.548908 -0.002966 -0.222047 -0.307829 -0.860690 0.671600 0.354494 -0.278745 -0.674543 0.069200 -0.441428 -0.449829 0.838242 1.037782 0.330605 0.177469 -0.412131 -0.329991 -0.749503 -0.526029 0.570753 -0.276082 -0.008167 -0.044547 -0.246387 -0.912533 0.607740 -0.544017 0.723360 -0.210408 0.317696 -0.190425 0.359897 -0.221895 -0.401611 -0.206300
扩张 0.131629 0.818137 0.455506 0.424125 0.394749 1.310965 0.389667 -1.014861 -1.034634 -0.828264 -1.169257 0.260366 0.579345 -0.277438 0.320655 -0.411678 0.091206 -0.201363 -1.175731 0.594462 0.582782 -0.003755 0.646728 0.267477 -0.002184 0.231108 0.068896 -0.147111 -1.194392 -0.767074 -0.193239 -0.263053 -0.325516 1.435317 -0.539442 -0.513916 -0.293183 -0.841908 0.069401 0.121432 0.156626 0.563882 0.025571 0.938067 0.027979 0.882939 0.733336 0.412202 0.736826 0.603929 -0.356252 -0.183484 -0.301247 -0.125089 -0.368759 -0.194362 1.302392 -0.815635 -0.970809 -0.283535 0.601798 -0.303005 -0.742963 0.643807
稍 0.005558 -0.397065 -0.297951 0.159738 0.170019 -0.119402 -0.401505 0.208274 0.023120 -0.219294 -1.148092 -0.268516 -0.012791 -0.079690 0.276897 1.379754 -0.068993 -0.668898 -0.057629 -1.115656 0.676202 -0.061647 0.505736 0.942287 -0.060003 0.497200 0.608826 0.375830 -0.435268 0.562272 -1.319187 -0.328532 -0.407311 -0.662760 0.162386 -0.577524 0.373621 0.098636 0.093150 -0.541162 0.905751 0.860284 0.878372 0.406500 0.587704 -0.440730 0.118287 1.057590 0.293462 0.498632 -0.066720 -0.440872 0.446027 -0.512597 -0.648404 0.879037 -0.242435 -0.020400 -0.117914 0.434368 0.306665 0.520364 0.096924 -0.151944
集合 -0.339986 -0.338075 -0.453503 1.366024 0.374930 0.556422 0.279704 -0.797071 -0.477336 -0.626090 -0.297629 0.031902 0.071892 -0.491293 0.323287 0.577982 -1.298408 -0.402714 -0.711478 0.520982 0.125316 -0.356736 -0.223436 0.789848 0.265851 -0.000552 0.134458 -0.100441 -0.971948 0.687976 -0.068012 -0.030822 -0.703078 0.008534 0.279417 0.008406 -0.220159 0.100636 -0.470060 -0.258351 0.656047 -0.129112 0.026611 -0.049395 0.971268 -0.110958 -0.354744 0.016329 -0.565436 -0.204855 -0.109014 0.530835 0.307382 -0.372559 0.272986 0.226431 1.146058 0.325754 0.104269 -0.519821 0.071867 0.211800 -0.458187 -0.301001
分离 -0.519652 -0.853427 -0.462153 0.951023 0.259846 0.305514 0.423606 -0.584017 -0.431323 -0.355947 -0.635129 -0.734199 0.195014 -0.229274 1.306379 0.360278 -1.117899 -0.152787 0.023438 0.274670 -1.093831 -0.059182 -0.180623 -0.151946 0.005493 -0.187494 0.126073 -0.338963 -0.796822 0.180512 -0.273123 -0.261285 -0.144417 0.587495 0.787871 -0.213693 0.677011 -0.362876 -0.040852 -0.711027 0.305173 0.173312 -0.017435 -0.609283 0.636769 -0.009725 -0.042043 -0.130954 -0.393132 -0.378482 -0.812096 0.028122 -0.122531 0.003246 0.651176 0.750017 0.606356 -0.441240 -0.338524 -0.131744 -0.299282 -0.271622 -0.512198 -0.443041
增厚 -0.009154 0.166789 -0.523847 0.141896 0.422355 1.183331 0.457883 -0.295074 0.710550 -0.575248 0.453702 0.189194 0.971585 0.425962 0.090691 0.272231 0.479573 -0.357897 0.759736 -0.751988 0.390344 0.520824 -0.048965 -0.006133 -0.525172 -0.096388 0.217662 0.376274 -0.470342 -0.324475 -1.023772 0.030524 0.432129 -0.363429 0.869448 -0.461595 0.084867 0.777490 0.685699 -0.030264 0.331201 1.414884 0.162975 -0.515123 0.609119 -0.987919 -0.143252 0.671149 -0.541996 0.409139 0.014269 -0.237269 -0.631867 -0.511562 -0.453207 0.964172 -0.272647 0.113485 0.003817 0.465091 0.617852 -0.313509 -0.436748 -0.531771
不均 0.320534 -0.316887 -0.139954 0.316945 -0.066783 0.503214 -0.319277 -0.173167 1.017283 -0.358032 -1.295715 0.069975 -0.098689 0.456819 0.244913 0.481735 -0.206189 -0.143444 -0.074939 -0.359017 -0.399882 0.181772 0.623533 0.764232 -0.931841 -0.217453 0.239423 -0.275489 -0.913683 -0.040129 -1.231577 0.059600 -0.073466 -1.515336 0.444162 -0.895625 0.765637 0.013518 0.514752 -0.622464 0.918032 0.831807 0.794659 0.117584 0.659000 -0.299856 -0.246360 0.286718 0.095920 0.376676 0.587332 -0.153298 -0.264544 -0.065502 0.018685 0.966122 0.385948 -0.290031 0.357675 -0.810238 0.493578 0.048863 0.253408 -0.006932
局部 -0.067236 -0.609190 -0.049665 0.691349 -0.222814 0.427006 -0.188585 0.391531 -0.064995 -0.776262 -0.619662 -0.047849 0.592131 -0.367005 0.227038 -0.179774 -0.595399 0.093778 0.041551 -0.531226 0.217250 0.195519 0.257145 0.900691 -1.017637 0.112797 0.608416 -0.214273 -1.035418 0.408621 -1.666104 -0.018670 0.043393 -0.579560 0.976725 0.254488 0.186309 0.296411 0.715971 -0.759095 1.550944 0.516457 0.720247 0.563061 0.298889 -1.341670 -0.607114 0.780012 0.402599 -0.000766 0.071194 -0.142511 0.130443 -0.107203 -0.145166 0.146757 -0.705038 -0.068658 -0.249240 -0.181548 0.626082 -0.569435 0.088075 -0.664557
腺体 0.047456 -0.053590 -0.042164 0.363673 0.053626 0.525210 -0.547095 0.064718 0.612240 -0.606552 -1.230308 0.285892 0.309823 0.224837 0.085006 0.717910 -0.027159 0.134280 0.152005 -0.151942 0.412653 0.593836 -0.248144 1.447119 -1.164792 -0.031535 0.193006 0.209277 -0.350272 0.458264 -1.030594 -0.441084 0.070217 -0.401438 -0.229400 -0.396339 0.545255 -0.529254 0.770200 -0.238791 0.859741 0.159218 0.960826 0.057521 0.885182 -1.119101 -0.020306 0.726635 0.859423 -0.089316 0.461801 -0.067701 -0.337536 0.053834 0.014743 0.965230 0.447719 -0.484388 -0.391322 -0.551154 0.600456 0.350813 0.195369 -0.014602
尚清 0.223657 -0.135736 0.531174 -0.056671 0.029015 0.174185 -0.615654 -0.606105 0.006228 -0.278668 -0.862558 0.399615 0.188512 -0.170684 0.554419 0.179772 -0.430729 -0.052837 -0.003762 -0.504620 0.645363 0.716967 0.252446 0.786654 -0.264762 -0.596479 0.415871 -0.566748 -0.634583 0.394096 -0.965237 -0.643468 -0.197789 -1.046573 -0.074196 -0.465044 0.192824 -0.417787 0.215192 -0.667529 1.217201 0.595992 0.581684 0.383579 1.249555 -0.867415 -0.805770 0.150453 0.262760 -0.279861 0.075290 -0.028416 -0.161204 -0.387104 -0.266587 1.539746 0.001942 0.166318 -0.086461 -0.197374 0.187280 -0.054498 0.362204 -0.316276
斑块 -0.288880 -0.715772 -0.682506 0.112718 -0.347451 0.771343 -1.147980 -0.316655 0.369548 -0.403500 -1.283062 0.919351 -0.005083 -0.466773 0.559204 0.361123 0.153624 -0.093678 0.417248 -0.459746 0.606952 -0.049597 0.161136 1.131482 -1.100183 0.135934 0.355836 0.106598 -0.954145 0.312099 -0.526136 -0.999864 -0.128294 -0.498085 0.812563 -0.558096 0.296583 -0.390854 0.770595 -0.844652 0.864128 1.188772 1.039746 -0.426275 0.532777 -1.360734 0.317491 -0.071608 0.003573 -0.411579 -0.165661 -0.150826 0.562708 -0.272246 -0.855225 0.896564 -0.245233 -0.489163 -0.132699 -0.176806 0.424943 -0.456743 0.014057 -0.509405
层次 -0.144444 -0.572879 -0.152737 0.148576 -0.198879 0.161545 -0.754238 0.041246 0.135003 -0.237035 -0.914198 -0.217628 0.194971 0.068855 -0.072839 0.234898 -0.851968 0.206490 0.184933 -0.675600 0.204661 1.072966 0.069107 1.319586 -0.659228 0.010710 0.556635 -0.040753 -0.637279 0.055888 -0.972654 -0.287591 0.515510 -0.580974 0.884421 -0.310899 0.299139 -0.708429 0.853474 -0.771982 1.065395 1.187677 0.815459 -0.186045 0.910956 0.051350 0.193530 0.144362 0.660120 0.018328 0.061578 0.317505 0.089619 0.109771 -0.361795 0.929290 -0.118912 -0.319715 0.439837 -0.180142 1.265687 0.487827 -0.379922 -0.036240
内 0.347948 -0.372809 -0.411210 -0.458867 -0.352892 0.484632 -0.122343 0.364194 0.017880 0.390729 -0.568052 0.260037 0.181527 0.103324 0.133279 0.109965 -0.721283 0.524353 -0.240088 0.196009 0.035727 0.009073 -0.126552 0.313980 0.346030 0.311938 -0.220879 0.564159 -0.164719 -0.879631 -0.429040 -0.553537 -0.478271 0.479735 0.105672 0.174509 -0.681002 -0.160710 -0.012321 -0.251428 0.150544 0.213310 0.025532 -0.049963 0.609036 0.351371 -0.140908 0.538175 -0.346178 -0.174137 -0.331366 0.533089 0.483947 -0.746305 0.204492 -0.152635 0.349097 0.082090 0.329219 0.958695 0.810181 -0.178390 -0.104474 -0.624405
左 0.015360 0.276084 -0.526890 0.266660 0.064560 0.701924 0.619197 -0.975708 -0.175839 -0.142065 -0.777852 -0.123096 0.676452 0.296225 0.103571 -0.591789 -0.611038 0.578934 0.246373 -0.475367 0.032856 0.417392 0.431367 0.093963 0.477202 -0.466456 -0.527298 0.036684 -0.576768 0.125767 0.152390 0.301189 -0.179593 -0.470226 -0.184015 0.737147 -0.047399 -0.494037 0.578429 0.376233 -0.055592 -0.616700 -0.130863 0.222204 0.325296 0.329361 -0.562848 0.097090 0.008999 -0.250872 0.433916 0.708783 -0.121628 -0.662441 -0.186269 -0.138672 -0.260356 -0.854937 -0.271340 0.049136 0.109821 0.517805 -0.449851 -0.200939
活动 0.335641 -0.224146 0.120251 -0.860487 0.084423 -0.363845 0.595686 -0.064257 -0.263048 -1.051140 -1.314542 0.153180 -0.104441 -0.372305 -1.145976 0.247631 -1.016781 -0.173162 -0.127361 0.366120 0.051507 1.014378 -1.045238 1.790727 0.130277 -0.685381 -0.046802 -0.565647 -1.095939 0.376706 0.681952 0.271796 -0.813890 -0.250279 -0.597270 -0.749611 -0.567224 0.557164 1.602741 1.382174 -0.503448 0.375809 -0.260611 -0.061090 0.035954 -0.869348 -0.328328 1.536185 0.487493 0.461559 0.202903 0.388488 -0.275254 -0.586613 -0.170075 0.158137 -0.967262 -0.190753 -1.841337 0.975660 0.240676 -1.097947 -0.722251 -0.017405
肝内 0.187312 -0.221402 0.304722 1.067103 -0.275734 0.830375 0.394792 -0.575281 0.044790 0.858291 -1.252330 0.137093 -0.828281 0.381869 0.450035 0.648526 -0.113929 0.548953 -0.079635 0.107087 0.336697 -0.187375 0.085605 1.047597 0.002418 0.092604 0.404993 -0.632501 -0.260581 0.074090 -0.220330 -0.877171 -0.039788 0.321160 0.056949 0.267254 -0.069905 -0.122037 -0.139905 -0.252369 0.019353 -0.048535 0.800605 -0.099855 -0.296391 -0.354046 -0.550968 -0.277847 -0.282085 0.359229 -0.184907 -0.529696 -0.818699 -0.476194 0.042810 0.087204 0.293795 0.447327 0.107037 0.000315 0.315968 -0.009382 -0.173281 -0.676491
发现 -0.002961 -0.295763 0.067322 -0.335696 -0.001055 0.946888 0.504785 0.223956 0.497248 0.132274 -1.066755 -0.083307 -0.032335 -0.966688 -0.072303 -0.581981 -1.458293 0.010258 -0.261895 -0.581033 0.711825 0.496920 -0.631882 -0.401083 -0.153250 -0.578284 0.643788 -0.315666 -0.962853 0.005864 0.331923 -0.511664 1.432877 0.438784 -0.189716 -0.061195 0.500535 0.379612 0.981117 1.501852 0.313435 1.267824 0.313277 -0.587863 -0.259912 -0.263442 0.824274 0.295605 -0.207144 -0.025852 0.422254 0.814773 1.061049 -1.396862 -0.054401 -0.401009 0.097388 -0.480194 -0.388390 0.598834 1.334944 0.755109 -0.345703 -0.848373
自如 0.024504 -1.386995 -0.422696 -0.103314 -0.218357 1.118020 -1.019932 -0.279961 -0.075622 -0.500357 -1.490847 0.217994 1.337927 -0.396986 -0.835290 -1.121890 -0.055221 0.377575 -0.157278 -0.797144 0.467227 0.514358 -0.535701 1.479279 1.072976 -1.007456 -0.781767 -1.411991 -2.258835 -0.032215 -0.413790 0.629739 -1.200934 0.063384 -0.540009 -0.550432 0.477705 0.586720 0.764113 -0.060546 0.156793 1.845915 0.253105 0.298842 1.140643 -0.107323 0.335299 0.779295 1.598171 0.039123 0.736943 1.126568 -0.025553 -0.466550 0.793429 0.193891 0.188335 -0.382950 -1.201934 0.821754 1.662147 -0.253378 -0.103392 -1.038479
mm 0.117531 -0.436878 0.893069 -0.189593 0.461959 0.523376 0.098546 -0.175884 -0.056626 0.376993 -0.456269 0.245212 -0.036753 -0.431746 0.362901 0.455746 -0.061487 0.349682 -0.222529 0.322531 -0.020500 0.438125 0.012283 -0.117145 0.285516 0.131739 -0.220291 -0.061251 -0.968862 0.165994 -0.387306 -0.032308 -0.717189 -0.267457 0.732539 0.301491 -0.025955 -0.303528 0.501046 -0.540271 0.168135 0.123285 0.174674 0.033835 -0.015753 0.266982 -0.045539 0.750169 -0.359899 -0.242862 -0.137048 -0.015087 0.751364 0.224687 -0.343826 -0.001754 0.609927 -0.047159 0.548416 -0.126648 -0.371268 -0.377821 -0.125547 0.356340
清晰 0.644024 -0.466470 0.426527 0.000573 0.124163 0.590278 -0.210524 -0.322448 -0.775578 0.508318 -0.653225 -0.289268 -0.602338 0.297365 0.293845 -0.517444 -0.148179 0.441288 -0.089257 0.523944 -0.216669 -0.140055 -0.224777 0.415247 -0.101765 -0.658497 -1.858578 -0.412541 -0.214670 -0.257756 -0.124974 -0.383206 -0.298916 -0.155029 -0.045357 0.109598 0.126073 -0.046829 -0.140460 0.083805 0.632989 0.580443 -0.799353 0.094104 0.240916 0.350513 -0.813896 0.427911 0.271949 -0.100632 -0.493271 -0.916371 0.260182 -0.292450 0.362445 1.169724 0.239008 -0.273612 -0.085884 -0.482518 0.293004 -0.423122 0.860965 -0.177626
<NUM/0> 0.277598 0.043057 -0.165303 -0.219780 -0.171853 0.310331 -0.000330 -0.087945 -0.243554 -0.058125 -0.207611 0.506966 -0.159902 -0.000092 0.945519 0.876203 -0.313882 -0.020530 -0.239726 0.268971 0.133304 0.002877 0.184562 -0.071643 0.443941 -0.620852 -0.555428 0.422383 -0.829186 0.355397 -0.208392 -0.072921 -0.507626 -0.168655 0.022918 0.444216 0.044407 0.069054 0.434268 0.512064 -0.357326 0.213698 -0.262715 -0.295991 -0.258224 -0.543747 0.154313 0.928127 -0.814968 -0.611041 -0.347108 0.098514 0.485030 0.267125 -0.581266 -0.108333 0.047375 -0.115728 -0.050811 -0.411114 -0.045345 -0.197813 0.194867 -0.543927
胆囊 -0.446100 -0.289264 -0.156774 -0.199569 -0.473543 0.955156 -0.551829 -0.475577 -0.404117 -0.541863 -1.009597 0.638803 -0.136693 -0.121478 0.033038 -0.245499 -0.109781 -0.237339 -0.112120 0.705768 -0.282681 0.277768 0.410064 0.693945 0.391035 0.211907 0.270612 0.353211 -0.835698 -0.204375 -0.553814 -0.392160 0.328413 0.574525 0.420252 -0.531530 0.001808 -0.017818 -0.268214 0.313744 0.054447 0.027419 0.730889 -0.142448 -0.112847 0.723802 -0.061133 0.974577 -0.199302 0.133882 -0.668868 0.141071 -0.081096 -0.665789 -0.433351 -0.202918 -0.349851 -0.434013 0.563423 -0.534437 0.171939 0.108858 -0.644816 0.740908
好 -0.393393 -0.337864 0.233354 0.131327 0.672027 0.110149 0.012425 -0.324506 -0.195973 -0.346480 -0.927938 -0.049640 0.331317 -0.158661 -0.708979 -0.083398 0.327270 -1.366616 0.103228 0.337957 1.116411 0.326320 0.529488 -0.065737 -0.286204 -0.113168 -0.490861 -0.847269 -1.131132 -0.443595 -0.372565 -1.558881 -0.022214 0.938901 0.475150 0.047812 -0.192305 -0.472078 0.319282 -0.993306 -0.182800 0.681864 -0.083209 -0.464257 0.201066 0.581623 -0.879907 1.467184 -0.007602 0.101287 -0.089764 0.268382 -0.699903 -0.433932 0.510773 1.231134 0.764295 -0.311220 0.685389 -0.299898 0.665889 -0.491864 -0.387713 -0.156286
内部 0.536274 -0.683743 -0.256129 0.555963 0.824596 -0.177953 0.840934 -0.495306 0.464052 0.406297 -0.600979 0.011650 -0.450327 -0.095003 -0.118055 0.848490 0.088756 0.228623 0.358478 0.747282 0.387917 -0.442295 -0.766268 -0.881043 -0.783131 -1.255369 -0.020034 0.414693 -0.026458 -0.625494 -0.626510 0.023945 0.323560 0.130479 0.145338 0.231763 -0.691542 0.104918 0.341911 -0.435836 0.857922 0.366930 0.745808 -0.102927 0.873093 -0.144145 -0.895104 0.928463 0.403428 -0.060714 0.274599 -0.853471 0.119611 0.172282 0.686691 -0.237003 1.008053 0.094147 0.102999 0.106093 -0.224036 -0.720311 0.431503 -0.616159
规整 1.033677 0.131857 0.482610 0.054468 0.458218 0.206916 0.744342 -0.111087 1.224389 0.104378 -0.961251 -0.572737 -0.936407 0.238627 0.184851 0.244488 -0.154654 -0.496854 -0.087284 -0.150720 0.685792 0.638207 -0.225233 1.394805 0.368031 -0.527667 -0.369136 0.047329 -0.704637 0.488029 -0.433384 0.143275 0.279382 -0.079709 0.363641 -0.322033 -0.278662 0.410721 0.216556 -1.025830 0.057691 0.402072 1.743786 -0.279192 0.524360 0.169947 -0.751565 0.444576 -0.088197 0.138971 -0.167737 -0.589196 -0.608616 0.297771 -0.093505 0.345838 0.104325 0.937360 0.050834 -0.296225 1.483906 -0.315937 -0.635241 -0.832958
肝脏 -0.525457 -0.303033 -0.236567 1.094267 -0.383267 0.171567 0.070384 -0.339387 1.029921 0.997762 -1.033490 0.121594 -1.152388 -0.614124 -0.091292 -0.349497 -0.712204 0.024905 -0.757424 -0.485008 0.414404 0.977879 0.530518 1.113966 -0.014260 -0.464611 -0.401897 -0.376710 -1.214634 0.253593 0.823466 -0.382539 0.799813 0.189962 0.061471 0.698802 0.700659 -0.029701 0.981346 0.102589 -0.261690 -0.272157 0.147167 -0.006997 -0.102724 0.246804 -0.502794 0.763740 0.175720 0.382722 0.584921 -0.128471 -0.423403 -0.804003 -0.781234 0.106674 -0.896330 0.929250 0.844623 0.168031 0.052163 0.547287 -0.299574 0.159425
右肾 0.019441 0.167328 -1.115648 0.598764 -0.057993 1.157192 0.906173 -0.905294 0.042836 -0.136978 -0.689363 -0.203017 -0.049160 0.333804 0.976312 -0.146211 -0.775346 -0.213269 0.104439 0.012883 0.124511 0.588899 0.339830 0.621891 0.711251 -0.287074 0.107641 -0.146906 -0.629201 0.279800 0.280252 0.254546 -0.296681 0.680441 -0.030375 0.214277 0.105129 -0.310029 -0.367127 0.094996 0.112451 -0.450711 -0.049034 0.302180 -0.362563 0.283242 -0.245085 0.339702 0.372258 0.136060 -0.575497 0.736310 0.078936 -0.436133 0.378491 0.026716 -0.101804 -0.425167 0.447160 -0.334271 0.161052 0.533743 -0.417351 0.045376
健康 0.130737 -0.865046 0.358307 0.201053 0.217131 2.027746 -0.023845 -0.639869 0.936656 -1.544345 -2.351023 0.176837 2.186746 -0.850968 -0.012290 0.425468 -1.083040 0.931062 0.033870 0.903895 1.776098 1.637970 -1.519706 -0.559177 0.620036 -1.217920 1.302248 0.028657 -2.295060 0.080498 -1.738681 1.139979 0.721083 -0.815156 -1.704991 -0.470760 1.497868 -1.715867 0.115910 1.725963 -0.011002 1.112413 0.604712 -0.016842 0.742956 -0.827502 0.064993 0.571887 -0.407630 0.544894 1.276496 -0.380899 1.518461 0.141328 2.174087 -1.264778 -1.080709 -0.961191 0.523996 -0.614846 0.373954 0.112226 -0.543364 -1.382048
脾脏 0.161675 0.032654 0.820707 1.055380 0.382339 1.034170 0.900279 -0.743331 0.410934 0.613808 -0.397274 0.195310 -0.274175 -0.079861 -0.206982 0.063607 -0.920584 -0.588620 0.475199 -0.795464 -0.119220 0.617895 0.297457 1.096638 -0.131264 -0.538962 -0.023440 0.403921 -0.304593 0.565379 0.248249 -0.505734 0.532662 -0.025440 -0.342676 0.562987 -0.101528 -0.283117 0.010040 -0.237162 -0.603646 0.046200 0.155729 0.631896 -0.600884 -0.036252 -0.486709 0.603830 -0.223604 -0.659200 -0.463750 -0.296445 0.520269 -0.364736 0.774219 0.247130 -0.627325 -0.076117 -0.318783 -0.627054 -0.141795 -0.556436 -0.079654 0.592786
良好 0.076643 -0.964493 0.532181 0.982255 0.512567 0.817256 0.262845 -0.942688 -0.322908 -0.588108 -0.717898 -0.020028 -0.376683 0.220069 -0.756847 0.655527 -0.124478 -0.310918 0.093037 0.513815 0.242885 -0.465889 0.138904 -0.372103 -0.638051 0.840171 -0.291511 -0.214980 -0.934341 -1.609547 -0.612091 -0.448772 -0.089521 -0.050723 -0.667217 -0.078979 0.057331 -0.691927 -0.066925 0.408440 0.289660 0.238774 -0.217434 -0.397676 0.878895 -0.367031 -1.168580 0.854194 0.366275 -0.632997 0.487429 0.183287 0.228433 -0.599675 0.263646 0.561790 -0.120376 -0.606616 0.082041 -0.016302 0.941588 -0.152814 -0.195629 -0.441300
胰腺 0.252689 0.297273 0.431370 0.749269 -0.012655 0.559736 0.023127 -1.108306 -0.702643 0.550266 -1.127818 -0.547915 -0.227737 -0.318713 0.498228 -0.341317 -0.770690 -0.216190 -0.020680 0.323685 0.253488 1.051635 0.152266 0.968192 -0.476045 -0.378051 0.769105 -0.294709 -0.438493 -0.321091 0.359562 0.305310 0.308144 0.394252 0.296475 -0.293174 0.453489 0.182982 -0.017335 -0.668552 0.160658 0.681357 0.153914 -0.242824 0.124668 1.185460 -0.371010 0.754027 0.537880 -0.328256 -0.027200 0.396900 -0.056431 -0.219879 -0.280730 0.330193 -0.135065 -0.027418 -0.226441 -0.636245 0.678927 -0.351367 0.318653 0.775750
可见 0.161134 0.430230 -0.057385 -0.662141 0.551875 0.004257 -0.346861 -0.689257 -0.108673 0.671487 -0.267608 -0.575298 0.308373 -0.075099 0.468472 0.560976 -0.557988 0.156991 -0.734725 0.160638 -0.270398 0.082574 -0.299849 0.042153 -0.394700 0.610106 -0.629228 0.154831 0.179613 0.090290 0.120866 0.542388 -0.357361 -0.100341 0.613086 -0.086389 0.080591 -0.351266 0.239232 0.321546 0.635443 0.528226 0.518878 -0.473549 0.250576 -0.085405 -0.627717 0.753908 -0.253800 -0.149932 -0.901025 -0.480398 -0.409525 -1.140755 -0.334707 -0.376277 -0.222388 -0.164471 0.141871 -0.323141 -0.096882 0.075896 -0.262591 0.264615
整齐 -0.371016 0.094331 0.438679 -0.512559 -0.803299 0.505718 0.453174 0.021470 -0.421201 0.576215 -0.937007 -0.023708 -0.333602 0.117680 -0.016466 1.190100 0.931252 -0.236979 -0.788188 -0.388852 -0.192842 -0.248643 -0.661454 0.628868 0.594863 -0.394457 0.268786 0.538006 -0.929613 0.085908 -0.249080 -0.378209 0.052502 0.311682 -0.178822 -0.301445 -0.420416 0.447498 0.228081 -0.733232 0.138416 1.391053 0.623117 0.309867 0.396416 0.841113 -1.368038 -0.210493 0.141084 -0.174320 0.898056 0.208229 0.231548 0.367969 -0.708001 -0.136935 0.426375 0.975013 -0.126838 -0.484894 -0.136766 -1.109622 0.014080 -0.604041
其内 0.179310 -0.690486 -0.147657 -0.148989 0.435119 0.232990 0.515489 -0.642744 -0.160934 0.384626 -1.489327 0.407700 -0.301783 -0.203384 -0.035325 0.605242 -0.598198 0.432618 -0.856641 0.278897 -0.059108 -0.340741 0.640716 -0.263001 -0.414919 -0.068142 0.436552 -0.044765 -0.409916 -0.516798 0.300693 -0.853525 -1.077052 -0.134432 -0.075745 -0.265355 -0.024204 0.122981 -0.663600 -0.552303 -0.456490 0.353073 0.471517 0.185241 0.265099 -0.021221 -0.367723 0.207230 0.022362 0.146800 0.420666 -0.489245 -0.209951 0.674616 1.026805 -0.083412 0.583327 0.545378 0.072701 0.964919 -0.043127 -0.785223 -0.319898 -0.865676
约 0.212663 0.124010 0.104976 0.008948 0.082570 0.272668 0.167456 0.048788 0.544023 0.103856 -0.589306 0.345142 -0.224080 -0.877664 0.116565 0.677869 -0.230104 0.194139 0.194520 0.012057 -0.234802 -0.337193 -0.216416 0.151516 0.451902 0.655808 -0.493756 -0.176388 -1.003600 0.580555 -0.423854 0.445892 -1.020258 -0.396725 0.025423 0.534031 -0.111968 -0.553345 0.542724 -0.595308 0.209213 0.142009 0.305192 0.210126 -0.318615 0.279421 -0.266580 1.203867 -0.394458 -0.231817 -0.622047 -0.555421 0.673583 -0.795789 -0.448074 0.157364 0.185776 -0.630953 -0.171494 0.128861 -0.263596 -0.177076 -0.438129 0.601266
测值 0.531615 -1.729176 0.000623 0.226440 -0.143084 0.821252 -0.430382 -1.142116 0.180282 -0.694898 -1.110711 -0.516388 -0.296956 -0.211600 -0.600949 0.068090 0.045436 -1.397257 -0.098466 1.024631 -0.625110 0.785031 0.414507 1.073097 -0.623316 -1.314632 -0.517422 -0.415197 -1.519325 1.285044 0.001832 1.135479 -0.787601 1.105473 0.468765 0.107957 -0.068092 -0.343522 -0.452456 -0.304426 0.106768 1.669064 -0.005940 -0.343272 -0.031908 1.150002 0.580582 0.139337 -0.721959 0.551851 -0.578498 -0.121640 0.678968 -0.909903 1.580871 0.395341 0.473093 -0.133307 -0.613350 0.773951 -0.232753 -0.440089 0.752744 0.073703
壁 -0.184161 -0.851683 0.222467 -0.013972 0.312528 1.645574 -0.105699 0.317067 -0.202374 -0.556668 -1.082751 0.277830 -0.386343 0.862406 0.285398 -0.221887 0.122741 0.303590 0.235646 -0.648758 -0.064023 -0.127637 -0.136069 0.430052 -0.314667 0.161505 -0.358420 -0.039145 -0.044137 0.240334 -0.345189 0.022735 0.118668 0.470426 0.344693 0.367654 0.637982 -0.783486 -0.832944 -0.186953 0.593184 0.716241 -0.087667 -0.435324 0.530638 0.529901 -0.237041 1.434667 -0.166862 0.539443 -0.631631 -0.602620 -0.095899 -0.850622 0.216049 -0.191910 0.342030 0.920632 1.223096 -0.456439 0.910249 -0.287012 -1.230413 0.228900
段 0.381978 0.364051 -0.278274 0.253441 -0.442081 0.277759 0.114894 -0.929162 -0.201392 -1.302059 -0.802485 0.215610 1.245646 0.632201 -0.200187 0.664582 0.016750 -0.138778 -0.308014 0.997252 -0.002261 0.746674 1.042078 0.332567 0.108435 0.610351 -0.548629 -0.426951 -1.056260 0.007770 -1.122984 -0.727594 0.477506 0.223844 0.352618 0.050327 -0.138138 -0.975634 0.462879 -0.507133 0.012043 1.023737 0.102556 0.009115 0.077076 0.991426 -0.576406 0.177203 1.051041 -0.052947 -0.310438 -0.608409 0.587688 -0.678678 -0.291685 -0.237613 0.735338 0.269971 0.014576 -0.467492 -0.175817 0.015300 -0.400121 -0.467223
触及 -0.382797 -0.612881 -0.552285 -1.194742 0.680202 -0.581652 -0.779022 -0.225591 0.468339 -0.988341 -1.672741 -0.009141 1.242958 -1.359756 0.520108 0.065292 -1.115049 -0.350785 -0.495781 -1.385735 0.236288 -0.053375 0.121720 0.333701 -0.133955 -0.798207 -0.250635 -0.608206 -0.288786 0.320991 -0.137499 0.122431 -0.587860 -0.960205 0.023798 1.190589 -0.905708 0.229142 2.247896 0.308686 -0.620471 1.871046 1.064863 0.073489 0.316013 1.543041 0.235276 0.822364 -0.115693 0.512420 -1.096539 0.821807 0.280999 -0.152949 -0.220569 -0.374951 -0.431727 -0.572138 -0.672534 -0.755598 -0.250985 0.540369 -1.099023 0.743640
胆总管 -0.194435 -0.550935 0.539201 -0.152074 -0.070181 1.033925 -0.259790 -0.590025 -1.004966 0.400074 -0.835377 0.332675 0.707419 -0.498899 -0.171353 0.027099 -0.695713 -0.276120 0.574526 0.718337 -0.483985 0.697929 0.424040 0.434628 0.747640 1.333268 0.426026 0.295158 -1.127290 0.149535 -0.367939 -0.644701 0.516875 1.595361 0.372011 -0.147558 0.021979 0.038904 -0.210509 0.194700 0.154791 0.552867 0.532195 -0.501190 0.543323 0.666594 0.130730 1.626557 -0.151995 0.202045 -0.728577 0.221874 -0.413853 -0.194374 0.592913 0.639744 0.846438 -0.306455 -0.998682 0.190170 0.751321 -0.763013 -0.069018 -0.095391
胰管 0.332466 -0.074198 0.277409 0.727555 0.063256 0.779274 0.107355 -0.729113 -0.457669 -0.230476 -0.589009 -0.241982 -0.483910 -0.884827 0.626000 0.059039 -0.563183 -0.389654 0.202230 0.555170 0.810132 0.747694 0.281197 0.800025 0.343406 -0.267308 0.468531 -0.792172 0.005742 0.213790 -0.386827 -0.602433 0.019535 0.428535 0.215239 0.242393 0.019526 0.607800 0.270823 -0.970574 0.538559 0.855902 1.448051 0.348329 0.033105 0.594736 -0.747013 0.619683 0.242038 0.213633 0.144817 -0.152698 0.595151 0.003171 1.067975 0.226291 0.060272 0.591749 -0.545698 -0.802339 0.599323 -0.109387 0.292297 -0.645700
血管 -0.885957 -1.477053 0.541252 0.520609 0.258301 0.636109 0.534055 -1.091820 0.387393 -0.408182 -0.139529 -0.308536 -0.332726 0.708166 -0.573246 -0.017527 -0.277871 0.830967 -0.435819 -0.313045 0.426499 0.115402 0.239632 1.347619 0.000396 -0.504250 -0.136199 -0.655583 -0.409488 0.294783 -1.302870 0.038418 0.021360 -0.032347 -0.026088 0.132862 -0.722744 -1.381565 1.001462 -0.242511 -0.295748 0.499058 0.465201 -0.269041 0.717544 0.873673 0.067132 0.660378 -0.114463 0.173803 0.022962 0.604101 0.306325 -0.380457 0.820459 -0.803987 -0.971799 0.003397 -0.866104 -0.670577 1.065651 0.302723 1.184969 -0.788308
及 0.178478 0.379468 -0.761320 1.242296 -0.281126 0.182747 -0.109316 -0.164715 -0.612669 0.081337 -0.408973 -0.594002 0.375707 -0.279676 -0.228720 0.666465 0.469924 -0.513320 -0.016735 -0.343962 0.447408 -0.305931 0.017507 0.151642 0.449432 0.658421 0.411065 -0.252857 -0.967607 -0.094876 -0.390542 -0.001440 -1.139108 0.292265 -0.013069 0.357457 -0.185406 -0.430301 0.327326 0.310300 0.023012 1.100515 -0.305006 -0.146559 -0.000716 0.048556 0.161213 0.498793 -0.220443 0.239746 0.479326 -0.074533 0.428379 -0.714360 0.117965 0.860883 -1.263713 -0.498265 -0.946112 0.054996 -0.022033 -0.181641 -0.622650 -0.132958
囊腔 0.439965 -0.951670 -0.236723 -0.333007 0.300450 0.786430 -0.513918 0.380168 -0.794533 -0.265982 -0.943987 1.111668 -0.121124 -0.069721 -0.403471 0.837898 -0.662492 -0.248118 0.361840 0.322427 1.287113 0.220433 0.960030 0.053340 0.736521 0.330832 -0.641447 -0.733779 -0.176129 0.592686 -0.418603 -0.346516 0.118055 0.477330 -0.130486 -1.107249 -0.116715 0.042441 0.382901 -0.729819 0.111226 -0.007945 0.978131 0.163559 0.318336 0.154682 -0.548290 0.424695 -0.076350 0.600453 -0.160428 0.416161 0.425515 -1.233223 0.345231 -0.129057 0.771161 -0.165387 0.363257 -0.663798 0.830821 -0.228522 -0.297308 -0.619355
边缘 0.205179 0.083044 0.326524 0.720352 -0.148865 0.375993 0.285466 -0.431672 -0.050621 0.779534 -0.025376 -0.379352 -0.511198 0.020883 -0.055663 1.675795 -0.120651 0.138027 -0.068632 -0.470117 0.990202 -0.310603 0.397672 0.725359 0.171078 -0.270280 -0.398094 0.976298 -0.849013 -0.196234 -0.362900 -0.825925 -0.059985 -0.173390 -0.323206 -0.225221 -0.637779 0.639562 0.406528 -0.527333 0.387020 0.450534 0.092815 -0.035931 0.053945 0.480982 0.269565 0.339380 0.476119 -0.638639 -0.469340 0.124709 0.623604 -0.051694 -0.043667 -0.403187 0.017233 0.297565 -0.420736 0.904076 0.391315 -0.543885 0.174230 -0.290183
囊壁 -0.092828 -0.591094 0.149554 -0.307178 0.644352 0.431208 -0.110342 -0.157434 -0.254660 -0.166618 -1.176483 0.245960 0.031861 0.377959 -0.230028 0.957970 -0.928043 -0.095648 0.069027 -0.005228 0.565780 0.357053 0.927407 0.206804 0.669718 -0.658447 -0.263099 -0.265015 -0.527749 0.468372 -0.705345 -0.762830 1.068879 -0.632851 -0.200995 -0.612652 0.535920 -0.473226 0.022547 -0.837127 -0.114528 -0.106031 0.476631 0.149529 -0.136335 0.500653 0.183528 1.235278 -0.144852 0.234194 -1.343087 0.708225 0.022371 -1.169605 0.439237 0.579806 0.313562 -0.010854 -0.027549 -0.096588 0.746071 -0.180345 -0.304000 -0.763834
信号 0.041422 0.045611 0.157255 0.577372 0.444057 0.284123 0.428239 -0.554007 -0.687507 0.444679 -0.038771 -0.078029 0.153529 0.636075 0.665005 0.386164 0.219701 -0.709889 -0.807783 -0.470875 0.601307 0.219321 0.268370 -0.034551 0.318452 0.910454 -0.783767 0.572284 -0.389156 -0.682224 -0.485482 0.404171 -0.631543 0.506710 0.104771 0.291569 0.150363 0.571294 -0.105997 0.151249 -0.109172 1.276436 0.915706 0.511739 -0.028959 0.140496 -0.521795 0.612576 0.031983 -0.461072 1.132135 0.092937 0.068985 -0.157906 0.302536 0.251275 -0.023599 -0.226804 -0.126657 0.467042 0.531653 -0.930790 -0.619404 -0.713717
双侧 0.439862 -0.291407 0.038057 0.843071 -0.218541 0.875698 0.044423 -0.495496 -0.655473 0.553845 0.183877 0.229744 0.785960 0.769939 0.150921 0.437462 -0.099084 0.579416 -0.285769 -0.095946 -0.695956 -0.134561 -0.132128 -0.139109 -0.036367 -0.145335 -0.157752 0.113743 -0.069021 0.514641 -0.527921 -0.054748 -0.135465 -0.402583 -0.227306 1.090938 -0.262151 -0.580166 0.534252 -0.006618 -0.123124 0.752038 0.346809 -0.114589 -0.450061 -0.044007 -0.543955 0.307033 0.395965 -0.342095 0.321556 0.227289 -0.697096 -1.226382 -0.196052 0.415157 -0.158245 -0.205618 -1.104815 -0.042001 0.700845 -0.224584 -0.245998 -0.631414
透声 0.012980 -1.037793 0.569493 0.211541 0.955811 -0.142972 0.605830 -0.256754 0.140905 -0.059288 -1.112377 0.453088 0.168303 0.495384 -0.501914 0.212846 0.103156 -0.899679 0.545924 0.867952 0.576392 0.745174 0.604605 0.759831 -0.443951 -0.270294 -0.444832 -0.161833 -0.443007 -0.419692 -0.487182 -0.762186 0.407597 0.421141 0.164106 -0.479657 -1.042182 -1.180863 0.197915 -0.038631 -0.134319 0.239402 0.668814 -0.354585 0.065598 -0.544809 -0.495162 1.459816 0.335921 -0.058871 -0.543856 0.219649 0.035450 -0.336182 0.362927 0.731757 1.269026 -0.283847 -0.155741 -0.661660 0.147533 -0.145336 -0.322595 -0.443334
附件区 -0.120507 -0.536297 -0.805091 -0.793187 0.251571 0.619960 1.265880 -0.989362 0.148820 -0.548730 -1.568713 0.617966 0.447740 -0.613703 0.372748 0.507787 -0.341807 0.526929 -0.168969 0.479308 0.397418 0.145008 -0.753713 -1.019350 0.004419 -0.525360 -0.407346 0.468239 -0.834944 0.256054 -0.726522 0.770067 -0.370095 -0.098330 0.602824 -0.541409 0.097223 0.319311 0.772724 0.378458 -0.011017 0.338406 0.708894 0.736961 0.429534 0.820549 0.778118 0.095753 -0.130326 -0.003471 0.331877 -0.541620 0.466510 0.582477 0.699180 0.704828 0.250906 0.032889 -0.067783 -0.217336 1.372500 0.360343 -1.049393 -0.216396
内科 -0.976307 -0.615757 0.714873 -0.095697 0.670306 -0.726389 0.117166 -0.890538 -0.633700 -0.380724 -1.583820 0.912803 0.609606 -0.329638 0.149863 -0.043280 -0.987094 -0.751597 0.281767 -0.976392 0.090602 0.525261 -0.298331 0.641227 0.146693 0.163860 -0.125560 0.204216 -0.581505 0.957953 0.198450 -0.162930 0.554859 0.353326 -1.156935 -0.473454 0.830658 0.428015 0.971871 0.892554 -0.342164 1.519882 0.249651 -0.319978 -0.222332 0.178842 -0.306451 0.294558 -0.427871 -0.249263 0.557921 0.615964 0.427799 -0.075733 0.262986 0.349390 0.081771 -0.544208 -0.329406 -1.034331 0.649048 0.677114 0.126200 0.427407
血流 -0.419440 0.121281 -0.468521 -0.129223 0.292528 -0.616309 0.498033 -0.928991 -0.032731 -0.404609 -0.352397 0.533170 -0.278389 -0.132730 0.530333 0.398439 0.606626 0.201002 -0.783379 -0.294767 0.282969 0.712504 -0.208756 0.059691 0.141640 0.333887 -0.693773 -1.274113 -0.145961 -0.298664 -0.727519 0.121408 0.011055 -0.074155 0.477672 0.050060 0.003695 -0.647402 -0.549101 -0.228395 0.350412 0.452634 0.436860 -0.380448 -0.540559 0.705910 -0.005184 0.973768 0.697132 -0.281520 0.605037 0.365596 0.548901 0.388768 1.146581 1.292061 0.597786 0.321417 -0.823592 0.110330 -0.631639 -0.299996 -0.297269 -0.970932
心电图 -0.249881 -0.811400 -0.321230 0.571335 -0.572042 -0.398037 -0.438132 -0.837169 -0.034109 -1.191895 -0.750543 1.341259 0.368082 0.843979 0.439141 -1.301340 -0.477968 -0.709186 0.066876 0.939178 -0.162329 -0.372500 -0.174003 -0.164460 0.877928 -0.756644 -0.143033 -0.692272 -1.177211 1.342020 0.347606 0.492015 -0.364586 -0.072017 -0.637168 -0.557986 -0.480944 -0.277108 1.918965 -0.600958 1.722944 1.169247 0.831502 -0.643165 0.199962 0.352091 -0.176576 0.497359 -0.009700 0.155213 0.094774 -0.155596 1.349929 -0.616021 -0.478125 0.887794 0.107942 0.323009 0.412994 -0.303527 -0.115771 0.239550 -0.627035 0.073365
窦性心 -0.446455 -0.101809 0.768547 0.007781 -1.044865 -0.055490 0.199514 -0.261934 -0.762192 -1.154492 -0.427835 0.124611 0.613145 0.535730 -0.213952 -0.297621 -0.408717 -0.574275 0.511062 0.373408 1.315637 -0.411808 -0.148273 0.487077 0.524485 -0.569976 -0.190012 -0.209141 -1.271242 1.198151 -0.764980 0.245233 0.586972 -0.011577 0.142137 -0.006923 -0.018489 -0.604076 1.811370 -0.994305 1.190586 0.602188 0.758663 -0.366696 -0.746814 0.148365 0.488478 0.216237 0.500261 0.453343 0.828927 0.113514 1.089207 -1.183791 -0.731867 -0.155277 0.615242 -0.754980 0.334441 0.714956 -0.646547 -0.616438 -0.396076 -0.348539
不 0.178311 -0.145866 0.314205 -0.293773 0.271814 0.366071 -0.228411 -0.150331 0.088143 0.407537 -1.337084 0.371270 -0.311624 0.833930 0.144334 0.166752 0.100216 -0.873209 -0.021057 0.142692 -1.201444 -0.773358 0.102557 -0.556906 -0.208041 -0.317809 -0.424928 -0.085115 -0.317332 -0.530617 -0.171892 -0.535288 -0.047486 0.305782 0.531436 0.340510 0.257889 0.043066 -0.233055 -0.586886 -0.051297 0.798686 0.714259 0.369837 0.454634 -0.203360 -0.080710 -0.145039 -0.382574 0.056841 0.441081 0.287864 0.425071 -0.881365 -0.028769 0.108361 -0.168717 -0.646618 -0.342889 -0.319383 -0.896390 -0.331911 -0.813866 0.516277
右 -0.219835 0.318504 -0.393912 -0.127507 -0.107742 0.416991 0.944884 -0.679266 -0.281233 -0.141752 -0.960931 0.136118 1.416281 -0.120177 -0.430159 -0.135598 -0.602454 0.595845 0.271825 -0.492647 -0.082093 -0.023938 0.166316 -0.403409 0.335405 -0.270502 -0.183528 -0.383787 -0.189221 0.327240 -0.217529 0.463965 0.009596 -1.079702 0.079074 0.537834 -0.067717 -0.470217 0.312340 0.450849 -0.057842 0.014690 -0.239794 0.154996 0.294404 0.848850 -0.880398 -0.040675 -0.326808 -0.308365 0.654470 0.295207 0.163795 -0.260009 0.236778 0.191767 -0.029595 -0.549429 -1.000701 -0.423916 0.975514 0.803641 -0.930480 -0.015074
子宫 -0.103522 -0.401479 -0.109675 0.118111 -0.381836 0.217051 0.185832 -0.851465 0.054697 -0.165165 -0.592299 0.116372 -0.518795 -0.193782 -0.121925 0.171918 -0.862856 0.176002 0.257402 0.111947 -0.401063 0.579828 -0.875282 0.007981 0.497582 0.085754 0.028903 0.869666 -0.404281 0.214896 -0.149594 -0.613812 -0.623117 -0.432736 0.982554 -0.146871 0.027892 -0.215351 0.061720 -0.819126 -0.419928 0.090823 0.480271 -0.526158 0.001056 0.120962 -0.206353 1.173219 0.141168 0.937087 0.363507 -0.159259 -0.052147 -0.399411 -0.167721 0.520852 -0.053079 -0.074490 0.515092 -0.710768 -0.327080 -0.057381 -0.468343 0.450459
病变 0.414863 0.306484 -0.071733 0.337079 -0.203951 -0.176711 0.186804 -1.597408 -1.647786 0.219603 -1.104868 -0.329147 0.417966 -0.571553 1.368128 -0.239655 0.618435 -1.348353 0.280978 -0.807290 0.538736 0.457893 -0.191533 -0.189579 -0.140294 0.470659 0.244346 -0.179630 -0.413178 -0.566908 -0.462741 -0.110128 -0.084014 -0.095385 -0.535052 0.078747 -0.657025 -1.037563 -0.127819 0.804638 0.033522 0.143980 -0.167847 -0.422648 0.592870 0.357918 -0.069311 0.548097 0.223229 0.183913 0.364448 -0.383245 -0.489141 -0.613415 0.267682 -0.359332 -0.087173 0.338913 0.242227 -0.054312 -0.392771 0.415260 0.530773 -1.676043
充盈 -1.150848 -1.677313 0.048702 0.317163 -0.060057 -0.106983 0.670834 -0.873344 -0.276607 -0.040282 -0.830903 -0.153842 0.672274 0.555645 0.425933 0.273768 0.008870 -0.000132 0.129558 -0.513966 -0.496239 -0.374193 0.143078 -0.727114 0.395242 1.086380 -0.856730 1.175687 -0.581623 -0.038959 -0.040400 -0.636152 0.793881 0.446541 0.188662 -0.558406 -0.231036 0.005311 0.035611 -0.573997 0.295341 0.309394 0.551896 -0.003911 0.462422 1.422144 -0.328876 1.746581 -0.202645 0.266755 -0.416562 -0.567843 -0.145194 0.385075 0.292284 1.460017 0.344397 0.070004 0.005764 -0.251460 0.251523 -0.153874 0.344021 -0.052907
前列腺 0.033738 -0.609380 0.033743 0.697187 0.304838 -0.197578 -0.079271 -1.050340 0.206662 -0.035746 -1.152241 -0.668071 0.217393 -0.142892 0.053541 -0.163961 0.525323 -0.001544 -0.191324 0.554303 0.130966 0.574316 -0.867676 0.366763 0.694556 -0.273240 1.108445 0.763985 0.037984 0.907985 -0.902943 0.424504 0.137070 0.049006 -0.219702 0.268947 -1.344638 0.622405 0.332872 -0.349772 0.300510 -0.236409 -0.255067 -0.497110 0.141995 0.118146 0.394364 1.060748 0.451302 -0.065220 0.798986 0.429318 -0.047873 -1.433935 0.224260 -0.224722 0.238144 0.001729 0.657965 -0.671772 -0.398993 0.460259 -0.103608 -0.058385
膀胱 -1.688425 -1.235985 0.151482 -0.497042 0.181437 0.308759 -0.175296 -1.492047 -0.672448 -0.631284 -0.546647 0.182038 0.233899 0.255651 -0.208015 0.503200 0.064693 -0.656097 -0.259336 0.186737 -0.699917 0.117007 -0.153889 -0.023250 0.004786 -0.131354 0.002449 0.064514 0.112223 -0.544114 -0.510925 -0.408068 0.161885 -0.302745 1.008449 -0.135895 -0.505784 0.337439 0.043637 -0.203915 0.751193 0.331205 1.101229 0.239503 0.072380 0.890256 -0.662417 1.784981 -0.324113 0.455609 0.521893 -0.324839 0.433865 -0.825729 0.863826 0.180701 0.520660 0.880746 0.004087 -0.535605 0.586796 0.234191 0.162138 -0.406991
结构 0.293363 -0.149200 0.438608 0.277054 0.225113 0.644382 0.415693 0.039239 0.928811 0.714369 -0.315381 -1.141845 0.691850 -0.143803 1.200096 0.321344 0.003003 -0.165767 -0.542416 0.146037 -0.076673 0.248014 0.079355 -0.058855 0.699526 0.398828 -0.114236 0.428030 0.105196 -0.467684 -0.802382 -0.392952 -0.457905 0.583994 0.602731 0.398070 -0.291691 0.279131 0.594030 -0.000587 0.217153 1.235547 0.203222 -0.043392 -0.123345 0.316740 0.246283 0.174476 1.015072 0.371091 -0.121281 -0.074900 -0.507157 -0.151022 0.090371 1.039443 0.071162 -0.260463 -1.018599 0.926638 0.683355 -0.393712 -0.580541 -0.446494
点状 1.094776 0.244283 -0.347536 -0.136164 0.608793 1.012946 0.119560 -0.394672 -0.456492 0.173685 -0.207972 -0.331409 0.069948 -0.751750 0.328838 0.330741 -0.176406 0.407815 -0.402464 -0.305086 0.259733 -0.798596 -0.367932 1.087879 0.706312 0.411141 -0.657718 -0.822338 0.277625 0.271384 -0.649276 -0.392707 -0.583445 0.737503 0.631209 0.104807 0.896188 -0.716934 0.287154 0.432090 0.301023 -0.000883 0.348192 0.255962 0.236148 0.375259 0.341483 0.359286 -0.729217 0.152704 -0.026114 -0.505110 -0.167908 -0.470141 -0.446161 -0.863199 -0.450702 -0.386769 0.129932 -0.390328 0.121747 -0.452554 -0.811257 -0.876439
影 0.995274 -0.140498 -0.033279 0.417425 -0.121437 0.150433 0.377962 -0.691504 -0.184201 -0.115244 0.149671 0.633206 0.653444 0.303771 0.608617 0.309137 -0.386248 -0.231045 -0.590188 -0.330013 -0.529709 0.834600 0.006075 0.946070 -0.941651 0.155964 -0.132042 0.137803 -1.342146 0.402868 -0.235383 -0.052459 -0.830888 0.935546 0.141164 -0.422614 -0.622052 0.230109 0.048971 0.390187 -0.190329 0.354691 -0.321712 -0.215101 0.168377 -0.285759 -0.041741 0.522266 -0.329486 -0.734962 0.625041 -0.786760 -0.336747 0.061663 0.134719 -0.553426 -0.545359 0.617900 -0.227041 0.654762 -0.301409 -0.011511 -0.601277 -0.080667
x 0.114977 -0.116964 0.273602 -0.176773 0.404113 0.695809 0.535299 -0.038300 0.197551 -0.085437 -0.734811 0.363673 -0.255038 -0.777771 0.416853 0.636916 -0.167393 -0.231101 0.060175 -0.431772 -0.185031 0.242944 0.259071 -0.229093 0.434313 0.320977 -0.682800 0.018039 -1.146752 0.553703 0.172497 -0.012815 -0.758441 -0.082263 0.767048 0.680427 0.408361 -0.106308 0.441923 -0.714012 0.699970 0.202562 -0.438627 -0.561939 -0.097372 -0.126549 -0.041050 0.991249 -0.274200 -0.309408 0.014619 -0.442855 -0.401204 -0.214307 -0.106307 -0.158213 0.490272 0.306352 0.732399 -0.092575 0.123813 -0.298671 -0.372109 0.158212
尚 0.217634 0.076639 -0.363506 0.691331 0.938458 0.663433 0.149649 -0.707579 0.406309 0.627093 -1.205145 0.865203 -1.016101 -0.211015 0.430232 0.729166 -0.400165 -0.445445 -0.020914 0.175433 -0.110383 -0.054752 -0.248364 0.326122 -0.425771 0.037548 -0.354271 -0.526269 0.510085 -0.145583 -0.930985 0.343013 0.172814 -0.157882 0.187822 0.166904 0.378826 0.158580 -0.176462 -0.555344 -0.580258 0.296891 -0.240065 -0.586984 0.926787 -0.232905 -0.492663 -0.148185 0.109282 0.925435 0.700233 -1.465122 0.066447 0.379349 0.279962 -0.163157 0.067381 0.413675 0.175126 -0.298945 0.533446 -0.461371 -0.244214 0.443145
宫颈 0.332288 -0.711137 -0.115162 -0.178096 0.645935 0.541233 0.072276 0.292652 0.016116 -0.069653 -0.242674 0.274877 0.285389 0.096569 0.523559 0.735500 -0.768816 0.426935 0.243016 0.257124 0.303168 0.421197 -0.453361 0.127518 0.610421 0.157597 -0.081202 0.205734 -0.351896 0.773139 -0.340737 -0.247970 -0.609617 -0.781746 0.615946 -0.157634 -0.160334 -0.047380 -0.026685 -0.935306 -0.997361 0.367533 0.854066 -0.098949 -0.601056 0.274089 -0.823715 0.673392 -0.080927 0.669782 -0.437597 -0.149909 0.145254 -0.514379 0.742819 0.001481 -0.041821 0.099011 0.414010 -0.647838 -0.114692 0.139131 0.092950 0.061134
CDFI -0.575987 0.190169 -0.245686 0.003660 0.401923 0.023056 0.496880 -1.247244 -0.868475 -0.054224 -0.347831 -0.257027 -0.091981 0.248439 0.182639 0.012464 -0.559359 0.126247 -0.525540 0.311810 -0.156040 0.117168 -0.289573 0.299545 -0.737266 0.810588 -0.460325 -1.192567 -0.717585 -0.187202 -1.337050 0.504651 0.208043 0.122219 0.591564 0.264126 -0.349031 0.143174 -0.260634 -0.935136 -0.060752 0.202834 -0.055953 0.562099 -1.022726 0.107045 0.014074 1.056386 0.207354 -0.021408 -0.099059 0.224920 0.357172 0.769329 1.056076 0.415556 0.896564 0.129082 0.221197 -0.051258 -0.194699 -1.111739 -0.430749 -1.087185
占位性 -0.227047 -0.650166 -0.282312 0.890182 0.622868 0.584175 0.915999 -1.836056 -0.296671 0.043987 -1.113493 -0.411558 0.150559 0.423648 0.386013 -0.235620 0.158413 -0.302406 0.314101 -0.023367 0.015872 0.521419 0.666728 0.729346 0.021025 0.405323 -0.007605 -0.522258 -0.937271 -1.168144 -0.875679 0.652103 -0.393359 0.680197 0.628246 -0.893068 -0.634755 -0.211843 -0.398860 0.237648 0.122632 1.153594 -0.243025 -0.388782 0.582935 1.223458 -0.481410 0.460525 0.180170 0.622569 -0.207339 -0.033056 1.082489 -0.496605 0.912912 0.506962 0.368920 -0.332964 0.941741 -0.534508 0.301259 0.543358 -0.325033 -0.560579
光点 0.025936 -0.888332 0.018967 0.577759 0.805434 0.611628 0.112087 -1.029767 0.495387 0.272082 -0.773061 -0.489572 -0.388549 0.420386 0.343545 0.574337 0.075971 0.207752 -1.204423 -0.647898 -0.063260 -0.175569 0.190540 -0.240869 -1.112937 -0.482271 -0.166896 -0.901405 0.881577 0.760237 -0.451615 -0.670570 0.264629 0.656168 -0.274467 0.658616 1.353582 -0.954098 -0.287027 -1.050711 -0.068601 0.719092 0.259840 0.148822 0.774692 0.310632 0.314768 0.514266 0.599576 -0.077201 -0.491592 -0.636254 0.192457 -0.364593 0.002051 0.020427 1.152578 -0.092042 0.210727 0.000443 -0.618185 -0.893230 -0.081580 -0.711055
管道 -0.008468 -0.055451 0.898335 1.375355 0.266219 0.760974 0.301322 -0.203791 0.836822 0.040749 -1.036299 0.294612 -0.432895 0.226887 -0.058811 0.429227 -0.953410 -0.577161 -0.438465 0.891887 0.024553 -0.405720 -0.106163 1.787169 0.159130 0.304322 -0.383712 -0.438403 0.407121 0.224897 0.014372 -1.226236 -0.260428 -0.398651 -0.223585 0.713414 -0.666243 -0.338124 -0.057793 0.221163 1.055122 0.520592 0.800592 -0.065589 0.267239 -0.262527 -0.891707 -0.161811 0.346612 0.360344 0.401531 -0.197670 -0.279607 0.150473 -0.027384 1.194149 1.252676 -0.477014 -0.412560 0.189656 0.302687 0.274593 -0.627216 -0.625057
外科 0.034514 -0.000049 0.188556 -0.004589 1.058416 -0.592187 0.624450 -0.709564 0.865072 0.113879 -1.803179 0.018983 0.405331 -0.093203 -0.018060 -0.514160 -0.275189 -0.046466 0.103712 -0.063612 -0.127889 1.283998 0.105217 0.135268 0.691728 0.589143 0.484294 0.122494 -0.832803 0.718106 -0.529544 1.009573 -0.053965 -0.619393 -1.081778 0.202556 -0.433294 0.353603 0.560373 0.427509 -0.599999 1.599482 0.032763 -1.057570 -0.144606 -0.042038 0.308431 0.476644 0.003934 0.414716 0.617458 1.043232 0.809307 -0.057020 0.276861 -0.412569 0.183569 -0.736282 -0.602723 -0.557091 0.397316 0.316942 -0.715075 -0.470197
呈 -0.049996 0.561176 0.113731 0.380088 0.393637 -0.623488 -0.462519 -0.851740 0.178690 0.051250 -0.389113 -0.939556 0.063264 0.568970 0.265614 0.652950 -0.710952 0.322177 0.617948 -0.934955 0.238648 -0.151576 0.493672 0.270341 -0.080588 -0.067946 -1.276034 -0.103003 -0.652150 -0.367238 0.308658 0.429356 -0.116363 0.116384 0.015872 -0.151936 -0.118005 0.071687 0.307791 -0.324098 -0.287208 0.345112 1.583115 0.935604 0.163217 0.108174 -0.347518 0.777645 -0.807930 -0.300332 0.245902 -0.924577 -0.274970 -0.529015 -0.127676 0.375286 -0.037623 -0.002031 0.891360 0.148002 0.415297 -1.083089 -0.209775 -0.175730
较 -0.123507 0.679114 -0.286267 0.948527 -0.364459 0.909026 0.227647 -0.777727 0.507577 0.730488 0.094194 -0.152917 -0.754735 -0.990707 -0.884444 1.292621 -0.203754 -0.386996 -0.875754 0.156306 0.480655 0.204959 -0.548837 0.141902 -1.019298 0.230116 -0.223132 -0.776314 -0.182161 -0.087387 0.115833 -0.120471 -0.104275 0.124880 -0.141183 0.424959 -0.811974 -0.607271 0.167149 -0.828753 -0.438553 0.767062 1.033204 0.322702 -0.034536 -0.179787 -0.120963 0.819742 0.546443 -0.072911 -0.424052 -0.800059 0.008701 0.373897 -0.308332 0.212880 -1.209440 -0.048201 0.438255 -0.203478 0.224003 0.829136 -0.113479 -0.300405
余 0.096789 -1.068110 -0.282308 -0.252419 0.265452 0.381372 -1.068381 -0.447384 -0.162989 -0.601892 -0.972463 -0.248062 0.921795 -0.717008 0.202729 -0.068226 -0.350716 -0.001971 -0.236433 -0.486165 -0.142550 -0.409688 0.936539 -0.184550 0.417483 -0.406703 -0.050807 -0.205723 -0.355814 0.327385 -0.010540 0.123959 -0.162397 -0.067237 0.310238 0.270250 -0.117585 -0.322230 0.248464 0.075406 -0.378672 0.716077 -0.271412 0.242022 -0.308068 -0.125103 -0.429989 0.325145 0.250861 0.412053 0.930379 -0.069659 -0.810466 -0.495446 -0.238129 -0.201513 -0.073395 -0.278828 -0.413973 0.189229 -0.022368 0.731914 -0.066264 -0.558744
<NUM/1> 0.643079 -0.009243 0.706798 0.147572 -0.236356 0.148152 0.147986 0.155206 -0.276745 0.238611 -0.468151 0.616256 0.231508 -0.283798 0.409734 0.795429 0.178791 -0.107391 -0.178032 0.348492 -0.074882 0.025760 0.194203 0.053358 0.419218 -0.217307 -0.586623 0.457076 -1.158444 0.314156 -0.250571 0.036348 -0.721578 -0.159460 0.331391 0.409525 -0.108569 -0.287149 0.415342 -0.251083 -0.224233 0.059210 -0.057541 -0.791494 -0.256596 -0.380456 -0.079756 0.739932 -0.594055 -0.341737 -0.363410 -0.183489 0.494629 0.505686 -0.816624 -0.012772 0.138693 0.085899 0.146944 -0.538703 0.061356 -0.448796 0.083658 -0.115298
强 0.890929 -0.461097 0.453899 -0.532636 -0.097766 0.280319 0.557713 -0.267642 0.739095 0.196816 -0.362095 0.381821 0.363062 -0.190453 -0.031183 0.976091 -0.649591 0.171859 -0.185451 -0.163714 -0.108113 0.234402 0.280804 0.662651 0.951515 0.652361 -1.025537 -0.535693 -0.406330 0.432697 -0.747032 -0.081964 -0.523345 0.019614 0.497011 0.014013 0.222797 -0.469089 -0.582292 0.231181 0.540506 0.246205 0.469986 -0.039553 0.634177 0.396197 0.592088 -0.141656 -0.537316 -0.166846 -0.607268 -0.352718 -0.531580 -0.601462 -0.175398 0.077739 0.157285 -0.408001 0.131492 -0.654465 -0.856661 -0.397752 -0.361505 -0.615249
透声性 -0.565737 -1.005399 0.033616 0.342106 0.152189 0.119131 -0.506733 -1.337128 -0.850381 -0.766803 -0.568217 0.531698 0.378120 -0.065876 -0.005047 1.251873 -0.851267 -0.537148 0.450535 0.034703 0.260881 -0.387271 0.366438 -0.228403 -0.105133 0.317184 0.279639 0.556060 -0.437713 0.020277 -1.216304 -0.608332 -0.229714 0.165012 -0.504272 -0.736606 0.257738 -0.075756 0.185662 -0.178141 0.134802 0.569577 0.237720 -1.046137 0.536823 0.371957 -1.286421 1.220149 0.402153 -0.331237 0.164998 -0.665594 0.787667 -0.417346 0.401233 0.877430 0.256588 -0.164134 -0.504940 -0.572679 0.779991 0.404591 -0.691953 -0.562172
延续性 -0.463910 -1.663746 0.628957 0.391191 -0.106328 0.736234 -0.011783 -1.234089 -1.041774 -0.272470 -0.259697 -0.126249 0.262202 -0.114045 0.067814 0.958000 -0.906995 -0.224899 0.763093 0.173903 0.344823 0.543366 -0.661436 0.198906 -0.817259 0.251087 -0.347214 0.150153 -0.622896 -0.265445 -0.908714 0.176342 -0.022951 -0.087399 -0.494421 -0.155112 -0.426520 0.283903 0.021965 -0.541723 0.905208 0.492489 0.319461 -0.705488 -0.000322 0.282455 -0.378609 1.212000 1.438262 0.093918 -0.360814 -0.323294 0.838171 -0.261709 0.354256 0.423369 0.182924 -0.799496 0.387779 0.006031 0.626839 -0.003703 -0.543405 -0.873333
上 0.486965 0.564124 -0.310726 0.002372 0.387256 1.105129 0.097350 -0.223407 -0.823346 -0.938581 -1.786696 0.065233 0.644540 0.587446 -0.622710 0.402902 0.107067 -0.135918 -0.364936 0.163167 -0.769915 0.547264 0.529181 0.506590 0.124206 -0.088151 0.327512 0.284417 -0.910571 -0.255884 -0.977700 -0.235748 -0.119787 -0.278291 0.445543 -0.187572 -0.022288 -0.433809 0.168369 -0.184518 -0.903733 -0.029127 -0.026503 -0.293504 0.619841 0.079652 -0.751046 -0.099368 0.184649 0.344764 -0.221941 -0.886235 -0.366648 -0.925082 -0.898293 -0.055251 1.241785 0.177673 -0.201069 0.669842 -0.149938 0.544462 -0.217701 -0.480006
律 -0.941428 0.364499 0.520131 0.167467 -0.722851 -0.110954 0.076996 -0.043817 -0.391838 -1.038715 -0.626094 -0.047455 0.238109 0.143259 0.443283 -0.423908 0.052678 -0.406107 -0.249498 0.260124 1.075447 0.401151 0.230723 0.646975 1.108104 -0.344697 -0.045268 -0.196231 -1.278626 1.759820 0.207057 0.421075 0.649698 0.460061 0.031374 -0.932473 0.242378 -0.760945 1.346827 -0.000861 1.611753 0.862806 0.353781 -1.028947 -0.956826 0.000486 -0.799721 0.440442 0.988812 0.608109 -0.101715 -0.564016 0.762700 -0.827745 -0.845046 0.702643 1.056633 -0.700748 0.454912 0.211013 -0.179967 -0.243501 -0.608064 -0.090448
后方 -0.056842 0.198553 0.815795 0.246307 0.709749 0.661604 0.472022 0.280518 0.407140 0.838945 -1.092036 0.244641 0.358286 -0.155798 0.666249 0.962496 -0.313829 0.450325 0.185815 -0.184169 -0.585119 -0.085341 0.582738 0.829167 0.527264 0.324929 -0.837354 -0.398213 -0.521128 0.643867 -0.309486 0.595540 -0.919662 0.405837 0.747711 -1.045469 -0.354721 -0.239450 0.468793 -0.741978 0.595481 -0.384704 0.103462 -0.207171 0.598910 -0.293017 0.589249 0.861282 0.110519 0.097089 0.488460 -0.490410 0.176214 0.490704 0.135760 -0.873389 0.966532 -0.108496 0.076228 -0.177652 0.313692 0.061744 -0.443004 -0.601295
详见 0.069259 -1.127426 0.811035 0.878312 0.635954 1.533622 -0.246984 0.012564 -0.040902 -0.731623 -1.249242 -1.259432 1.133593 -0.715938 -0.369610 -0.456066 0.464760 -0.947600 -1.306841 -0.651934 0.286492 0.080243 0.361704 -0.024348 1.510242 -0.062243 0.386477 -0.947783 -1.078796 0.307868 -1.052642 -0.467479 1.086422 -0.667049 -0.317152 -0.466329 0.928227 -0.867039 0.486685 0.325588 0.998382 0.549585 0.780149 -0.831893 -0.524050 -0.842330 -0.577340 1.006638 -0.626455 0.081737 -0.069069 -1.458840 0.878943 0.135641 0.716609 -1.587681 -1.481428 1.147736 -0.365849 -0.219271 1.341178 2.240433 -0.332640 -0.957980
分泌物 -0.416550 -0.139734 -0.548239 0.849951 -0.826660 0.861622 -0.433129 -0.507102 -0.323937 -1.543538 -0.507914 0.003780 1.111620 -0.168886 -0.177625 1.327349 -1.283989 0.407885 0.330480 -0.715999 -0.173586 0.905252 -0.360594 0.387952 0.057289 -0.366950 -0.132252 0.752056 -0.342820 -0.350240 0.054710 0.934020 -0.542221 -0.242472 0.297870 0.003767 -0.352521 -1.078336 0.398783 -0.058118 -0.441134 1.494506 0.531983 -0.124641 -0.553440 -0.621869 0.878833 0.711400 -0.558098 1.258827 0.794374 -0.267338 -0.600044 0.089518 -0.628719 -0.037827 -0.597412 0.316966 -0.124958 -0.170030 0.831094 -0.532144 0.172726 -0.246135
走行 0.150300 -1.017577 0.175367 0.639912 0.332748 0.813722 0.916942 -0.623296 -0.129565 0.195316 -0.020741 -0.173165 -0.128906 -0.037399 -0.549715 0.610381 -1.303688 -0.035198 -0.690602 -0.566382 0.742486 -0.200781 0.285652 1.166178 -1.042508 -0.369788 0.251304 -0.187077 0.060990 0.694076 -1.059956 -0.354900 0.565563 0.694616 -0.142150 1.467687 -0.001818 -0.045129 0.331995 -1.154046 -0.093379 1.252602 -0.695912 -0.891941 0.540221 0.699997 0.807434 -0.306184 -0.356073 0.029683 -0.284815 -0.379453 -0.193892 -0.298031 0.517297 0.642719 -0.597324 0.285245 -0.264469 -0.578965 -0.124303 -0.066218 0.493210 -0.097340
甲状腺 -1.601086 0.075423 -0.032583 0.235434 0.256935 0.402750 -0.210509 -0.925843 0.815665 -0.152867 -1.672018 0.216345 -0.367009 -0.793814 0.208438 -0.071981 -0.574238 -0.222174 0.160599 0.388714 0.069828 0.615109 -0.078446 -0.313675 0.002436 -0.232354 0.047697 -0.051129 1.179351 0.583137 -0.824744 0.084432 0.055150 -0.240302 -0.500651 0.225938 -0.624527 0.131423 0.837561 0.468050 -0.326419 0.514979 0.145780 -0.619324 -0.219024 -0.372187 -0.491293 0.210899 1.278919 0.202382 -0.013957 -0.031231 -0.497259 -0.425096 0.028433 0.291458 -0.653379 0.369003 0.229421 -1.292339 -0.034825 0.010411 -0.136076 0.542866
报告 -0.297082 -1.315427 0.721177 0.698236 0.218525 2.309685 0.654827 -0.243867 -0.998553 -0.604786 -0.282353 -0.576061 0.422128 -0.248054 -0.545077 -0.941053 -0.224227 -0.584930 -0.497727 0.450144 1.641998 -0.178907 -0.308781 0.949868 2.325891 -0.327984 -0.215781 1.025839 -1.588751 -0.863265 -1.225015 -0.673431 -0.192897 0.037704 -0.792003 -0.275692 0.556481 -1.049983 2.044034 0.404970 0.969632 0.847612 1.107029 -1.133162 -0.467650 -0.924835 -0.252628 0.818491 -0.698643 0.553184 0.410006 -0.524608 1.231198 -0.271830 1.060467 -0.463679 -0.851696 0.262790 0.169550 0.940926 1.187815 2.267680 0.462661 -0.819839
未查 0.957307 -0.072793 -0.809467 0.282394 -0.119690 1.324772 0.102164 -0.487960 -0.506832 -0.916399 -1.546622 -0.080557 1.167107 -0.093559 0.374263 0.824223 0.389321 -0.802507 -0.052294 0.941535 -0.681120 1.155037 -0.166283 -0.134532 0.964597 -1.287941 -0.280942 0.429251 -0.487327 0.407775 -0.012501 0.893907 -1.033533 -1.821720 1.103093 1.191590 0.562104 0.229610 0.123568 0.854802 -0.661837 2.144419 1.573507 0.652516 -0.740312 0.066952 0.146680 0.436511 -0.066786 1.006987 0.424348 -0.166380 -0.535554 -0.484918 -0.784217 -0.475808 -0.469116 0.101962 -0.013767 -0.775040 -0.152650 -0.014061 0.382159 -0.931401
密集 -0.048296 0.068360 0.308790 -0.274068 -0.079687 0.777736 0.141404 -0.860782 0.870084 0.121247 -0.481198 -0.007949 -0.402115 0.065369 0.288778 0.803478 -0.354412 -0.002467 0.399098 -0.316435 0.217111 -0.312976 -0.287920 1.130302 0.328979 0.425425 -0.115622 -0.263345 -0.073456 0.262514 -0.397383 -1.021446 -0.007927 1.090094 0.128333 0.826860 0.616519 0.023229 0.153186 -0.058247 0.806747 -0.166959 1.981402 -0.084193 0.170657 -0.145942 -0.683590 1.016430 -0.852197 0.436992 0.723561 -0.740780 -1.024324 -0.541798 -0.621303 0.646274 0.408865 0.380125 0.150125 0.029758 0.521700 0.158267 0.710563 -0.920142
弥漫性 0.276546 0.411495 0.331226 0.231244 0.554016 1.559773 -0.045828 -1.060972 0.939963 0.688100 -0.717548 0.115572 -0.500030 0.149965 -0.157412 0.508366 0.443979 0.759255 0.341035 -0.052490 0.852711 0.464737 -0.316835 0.653053 -0.186804 0.001207 0.207137 -1.017357 0.653844 0.058173 -0.269268 0.090959 -0.306178 0.538871 0.569514 0.719175 -0.942156 0.261625 1.487270 0.077092 0.936973 0.957364 1.514457 -0.184868 0.094254 -0.276935 -0.289509 -0.116241 -0.257933 1.043158 0.627435 -0.131253 -0.127134 0.135708 -0.381958 0.712041 0.006658 -0.212963 1.546726 0.440259 0.623346 -0.358117 0.070967 -0.389594
输尿管 0.092696 0.445267 0.685380 0.351617 -0.697379 0.229575 0.519798 -1.556395 -0.802938 -0.598555 -1.979829 0.379002 0.753295 0.404777 -0.901642 1.011788 -0.325135 -1.428877 0.433839 0.060246 -1.032293 1.080472 0.112827 0.551386 -0.554215 1.111204 -0.472226 0.283017 -0.981311 0.699375 -0.743203 0.558419 -0.669180 0.655806 0.348792 0.008284 -0.296650 -1.324322 0.380931 -0.101609 0.262705 0.712626 0.050953 0.272554 0.495322 0.687214 -0.601961 -0.238652 1.120366 0.548949 0.034405 0.242110 0.063262 -0.139350 -0.479610 -0.939496 1.398380 -0.619605 -0.526877 -0.274852 -0.042437 0.375728 -0.987075 0.673961
回声区 0.553757 -0.638730 -0.033457 -0.187198 0.958809 0.868741 0.300227 -0.875901 0.404050 0.289081 0.295705 0.979204 -0.128404 -0.624624 0.639116 0.611116 -0.010946 -0.110526 -0.012442 0.012933 -0.453397 0.298223 -0.738584 0.137499 0.307883 0.153531 -0.721507 -0.013253 -0.659345 -0.012953 -0.248801 -0.399363 -0.412864 -0.387131 0.413460 0.439672 0.055366 -0.219687 0.808535 -0.729291 0.456692 0.104238 0.513462 -0.032922 0.127608 0.871452 0.472770 0.489868 0.175266 0.201593 -0.679900 -0.757147 0.018855 -1.416692 -0.130662 -0.464323 0.759043 -0.996485 0.378185 -0.340865 0.008458 0.136496 0.060364 -0.394981
间 0.325570 0.700511 0.241673 0.226736 -0.478504 0.336454 -0.061104 -0.850932 -0.695550 -1.307688 -1.289244 0.150215 1.458026 0.500112 -0.260348 0.672881 -0.127936 -0.528111 -0.291555 0.620656 0.376059 0.256638 0.894525 0.174429 0.130721 0.277526 0.614987 -0.048965 -1.011815 -0.177110 -0.578573 -1.081633 0.017189 0.157944 0.585022 0.425847 -0.636482 -0.856336 1.193168 -0.166239 -0.206777 0.819882 -0.412486 -0.015578 0.579621 0.426552 -0.922896 0.512691 1.337452 -0.469968 -0.240586 -0.620700 0.886945 -1.197544 0.181237 0.051034 0.809831 -0.749086 -0.638475 0.387131 0.260011 -0.492026 -0.574044 -0.613643
膀胱壁 -0.012039 -0.067420 0.434362 0.236651 0.704562 0.303979 0.646566 -1.270758 -0.849870 -1.142042 -0.809426 -0.215977 1.867690 0.759958 -0.442629 0.270122 -0.028229 -0.058283 0.799815 1.231459 0.039622 0.982053 0.478410 0.453844 0.130067 0.356636 -0.238655 -0.249051 -0.972860 0.369771 -0.606248 -0.290235 0.117272 0.605174 0.135787 0.727972 -0.173276 -0.448985 -0.405252 -0.332988 0.432923 1.066546 0.510519 -0.438563 0.795592 0.811001 -0.922162 0.663364 1.018898 -0.081865 -0.782403 -0.767488 0.322123 -0.959054 -0.635887 -0.032455 1.085452 0.081918 -0.308791 0.038136 0.581129 -0.052845 -0.325205 -0.684233
一个 -0.017844 -0.162502 0.042296 -0.274439 0.133496 0.222188 0.511914 -0.997297 0.650534 -0.585762 -0.496966 0.477432 0.414826 -0.659413 0.138230 1.027085 -0.478760 -0.129874 -0.091755 -0.083311 -0.298812 0.411842 -0.065389 0.957459 0.100449 0.301595 -0.762797 -0.188316 0.479329 0.321683 -0.654190 0.248753 -0.327625 -0.146153 1.217488 0.013058 0.236739 -0.247554 0.473418 -0.491816 0.417728 0.080233 0.217543 -0.006868 -0.230546 -0.703043 -0.633079 0.895661 -0.280121 0.113327 -1.226788 -0.398268 0.477727 -1.149734 0.560935 -0.427124 -0.065623 -0.355527 1.064072 0.001353 -0.519825 -0.661596 -0.168006 -0.329600
见 0.216499 -0.124926 -0.073394 -0.474242 0.515669 0.075126 -0.218740 -0.420509 0.189886 0.678969 -0.021047 -0.436278 0.352928 0.765902 0.432131 0.198740 -1.051907 0.030264 -0.796586 0.626766 0.683030 0.001641 -0.615116 0.165692 -0.671273 0.784623 -0.421885 -0.232774 -0.399986 -0.027585 -0.245004 0.315661 -0.527639 -0.260997 0.919403 0.045763 -0.043033 -0.538369 0.074065 0.185206 -0.268455 0.370865 0.189530 -0.811525 -0.345036 0.202859 -0.458407 0.802284 -0.913748 -0.085792 -0.881037 -0.455150 -0.154299 -0.438471 -0.127434 -0.451209 -0.468532 0.027592 0.412731 -0.083504 0.369611 0.102287 0.289285 -0.087342
弃查 -0.435886 -0.123335 -0.276480 -0.196252 0.286121 0.521253 -0.937617 -0.186265 0.460418 -0.563753 -0.895995 -1.268719 1.080920 -1.160069 0.250237 -0.249368 0.085811 0.039238 0.038433 0.714547 -0.165467 1.242182 0.003481 0.700522 -0.052929 -0.981149 -0.160888 0.770938 -0.749842 0.172320 -0.577195 1.115990 0.066177 -1.441136 0.146147 -0.122923 -0.481668 0.493387 0.880181 0.616546 -0.216473 0.673617 0.466020 -0.737106 0.321152 -0.278495 -0.351334 0.836711 -0.612274 -0.290886 1.832482 0.717745 -0.304174 -0.980478 0.172871 0.043773 0.121415 -1.219959 0.173637 -1.575464 0.188879 0.078804 -0.347148 -1.042839
纸质 0.043846 -1.328065 1.825107 1.538779 0.789691 0.685608 -0.005859 -0.267383 -0.300721 -1.014663 -0.347308 -0.943565 0.558203 0.110786 0.295648 -0.860459 -0.400543 -0.776734 -0.904806 -0.096762 1.173460 0.544296 0.215664 0.261010 0.715549 -0.676074 -0.121837 0.825427 -1.672692 -0.868345 -1.223512 -0.068094 0.637559 0.300090 -0.494902 -0.726634 0.834200 -0.374871 1.670426 0.457672 1.401530 0.428627 0.823768 0.030827 0.026705 -0.509020 -1.146520 1.250548 -1.498056 0.182642 0.546090 -0.682021 1.287112 -0.269430 0.779456 -0.697904 -0.954311 0.474859 -0.096093 0.237057 0.223368 2.649363 0.161718 -1.169446
中 -0.660317 0.316111 0.602448 -0.231374 0.081208 0.212112 -0.308897 -0.583428 -1.200094 -1.226791 -1.092690 0.002008 -0.047365 -0.124183 -0.729937 0.113994 0.213551 -0.250586 -0.157014 -0.808486 -0.036504 0.174750 -0.159547 0.319107 0.478733 -0.257287 -0.633149 -0.271360 -0.728262 0.083209 -0.394519 0.128306 -0.476224 0.107314 -0.030593 0.352514 -0.808612 0.474013 0.671180 -0.152451 -0.289803 0.681679 0.661847 -0.580866 -0.494876 0.130499 -0.114990 -0.197661 -0.199043 0.258372 0.555835 -0.101430 -0.347459 -0.508413 0.314486 -0.263380 -0.562226 -0.753074 0.531890 -0.759178 -0.062945 0.375139 0.172026 0.072213
后 -0.016024 0.548638 0.360872 0.054503 0.081172 0.356523 0.114406 -0.045387 -0.716588 -1.012424 -1.432895 0.650297 0.622465 -0.479573 -0.362688 1.021570 0.721894 -0.379003 -0.378641 -0.112409 -0.287250 0.616823 0.138466 0.458157 -0.104104 -0.039492 -1.089990 0.188108 -0.137457 0.499574 -0.065215 0.122375 -0.256655 -0.154773 0.196283 -0.137766 -0.410266 -0.335255 0.045881 0.114199 0.085213 -0.545641 0.522098 -0.986123 -0.045086 0.448277 0.598970 0.027033 -0.994493 0.039858 0.506236 0.202367 -0.008266 0.135503 -0.458517 -0.561211 -0.499328 -0.694309 -0.688344 0.237055 -0.042545 0.519532 -0.271637 -0.370372
轻度 0.708537 0.053458 0.760699 0.925188 -0.011854 0.956727 -0.108323 -0.038297 0.503910 -0.529798 -1.282586 -0.542395 0.218076 0.488161 0.558247 0.833748 0.316020 0.058912 0.511081 -0.000196 -0.027687 -0.411227 0.205783 -0.259952 -0.064302 0.238649 0.574690 -0.920742 -0.408842 -1.026381 0.202729 0.723763 -0.156642 -0.471182 -0.227009 0.531092 -1.121868 -0.342214 0.821020 0.895763 -0.026176 0.443484 0.577234 0.600066 -0.210214 0.092435 -1.308989 0.147433 -0.398351 0.126926 0.059448 0.451873 0.415408 0.025980 -0.303046 -0.265016 -0.569885 -0.631934 0.354311 0.095710 -0.675751 0.600127 -0.178099 -0.699511
牙结石 0.037637 -1.020094 0.319262 0.608216 1.094260 0.337180 -0.707036 -0.631209 -0.694193 -0.187050 -1.256537 -0.067192 1.378646 0.040664 -0.883671 0.333362 -0.641801 -0.893845 0.665329 0.526797 0.555830 1.453362 -0.522687 1.103455 0.953468 -0.105119 -0.578116 -0.704848 -0.799627 0.720230 -0.070635 0.024584 0.303206 -0.631203 0.625343 0.144807 0.166018 -0.304810 0.212022 0.701450 0.185357 0.028142 0.209500 -0.225185 0.820782 -0.206196 -0.005727 -0.310380 0.907366 0.196360 1.109803 -0.066141 -0.640911 -0.628259 -1.026329 -0.387734 -0.036753 0.210098 -0.706631 0.711060 0.689719 0.165774 0.217149 -0.346844
/ -0.753820 0.564623 1.029032 -0.242414 -0.023902 -0.219539 -0.305017 -0.263008 0.951641 -0.993251 -1.318756 -0.709993 0.698268 0.044347 -0.140260 0.208434 -0.371481 -0.476316 -0.454814 -0.758018 0.824964 -0.620652 0.116092 -0.040438 0.468900 0.207737 0.611229 -0.277084 -1.319837 0.045878 -0.632725 -0.467380 -0.354023 0.510550 0.293611 -0.614201 0.081433 0.422638 2.255626 -0.387534 0.766472 0.424488 0.563412 -0.579664 -1.345112 0.934704 -0.177771 0.358194 -0.943250 -0.579970 0.558528 -0.215165 0.907719 0.772332 -0.928488 0.606238 -0.018175 0.618978 0.555439 0.590657 -0.384232 -0.075739 -0.890999 -0.159878
改变 0.023818 -0.031939 -0.185247 0.415247 -0.122684 0.846292 0.751957 0.167170 0.166274 -0.441639 -0.173209 -0.193329 1.007263 0.070590 1.245500 0.527255 0.214449 -0.504231 -0.723745 -0.480009 -0.442473 -0.470509 -0.408336 0.804316 0.159768 0.591097 -0.142838 -1.195666 -0.723277 -0.171735 0.380629 -0.576095 -0.893030 -0.262772 -0.354733 0.026692 -0.203546 -0.491547 -0.340789 0.322324 -0.477180 0.630115 -0.087436 -0.797093 -0.408317 -0.306651 0.198306 0.918854 0.329066 -0.406021 0.572702 -0.371295 -0.073568 0.261696 -0.559302 0.098516 0.334628 -0.032071 0.828372 -0.268586 -0.258058 -0.355967 -0.635644 -0.664452
增生 0.129053 -0.590637 1.018283 0.728085 -0.245628 0.508662 -0.366175 -0.697751 1.093127 -0.586784 -0.971002 -0.617524 -0.133353 -0.458998 1.926430 0.809970 0.358676 0.331684 0.142817 1.090861 -0.725559 1.305227 0.329318 0.829621 1.070788 0.071856 0.278915 -0.547758 0.297942 -0.671398 0.139867 0.748333 0.762641 -0.183314 -0.274218 -0.058680 0.062457 -0.439308 0.952754 0.091019 -0.213765 1.419565 -0.607652 0.074117 -0.567204 0.422059 -0.332686 0.648098 0.662660 0.261715 0.853181 -0.213791 -0.620512 -0.533884 -0.464169 0.753030 -1.380412 -0.244620 0.224944 -0.076718 -0.002370 -0.267652 0.551973 -0.746203
× 0.115617 -0.251756 0.345255 -0.150385 0.672560 0.782917 0.739939 -0.123317 0.535161 -0.177372 -0.867477 0.244337 -0.237067 -0.571932 0.250977 1.090559 0.244187 -0.084029 -0.268946 -0.136043 -0.033164 0.139325 0.401069 -0.237824 0.226022 0.402137 -0.440613 -0.344144 -0.932179 0.403742 0.124127 0.005813 -0.377747 -0.616505 0.440076 0.782052 0.372333 -0.362335 0.706260 -1.126533 0.279573 0.308322 -0.512219 -0.281790 -0.242423 -0.158142 -0.068058 0.745454 -0.143708 -0.347898 -0.065478 -0.598386 -0.529605 0.171064 -0.007807 -0.117230 0.470256 0.135012 0.815415 -0.365757 0.344526 -0.424797 -0.317410 0.260171
慢性 -0.590656 0.655202 0.480749 0.377486 0.478627 0.871360 -0.632358 -0.614893 -0.137604 -0.909717 -0.914599 -0.245923 0.724323 -0.196599 0.531395 0.222940 -0.777812 0.590554 0.320182 -0.334521 -0.116449 0.314860 -0.021961 0.254996 0.190464 -0.835026 -0.024368 -0.665879 -0.498984 -0.008546 0.126407 1.384391 0.302754 0.398033 -0.146584 -0.008160 -0.833950 -0.154047 0.390759 -0.421271 0.635716 1.363150 -0.263290 -0.021200 -0.097638 -0.038817 -0.650349 0.047641 -0.181105 0.387638 0.909465 -0.319465 -0.460690 -1.043468 -0.753368 -0.076045 -0.747833 -0.875968 -0.632110 -0.055884 0.561056 0.566081 0.802289 -0.328662
对称 -0.530616 -0.970675 0.501493 -0.032169 -0.386416 1.028882 0.514633 -1.401246 0.734930 -0.312458 -0.418043 -0.236867 0.175971 0.395807 -0.737937 -0.201069 -1.010254 0.644599 -0.412662 -0.564321 0.719919 -0.917643 -0.339044 0.461021 -0.091376 0.214009 0.116687 1.281601 -1.319031 -0.275920 -0.344862 0.217420 -0.921948 0.227551 0.079703 0.675370 -0.864547 -0.894661 -0.447245 0.951155 0.295611 1.887703 0.518006 -0.618737 0.151226 0.034796 -0.665838 -0.699918 1.771603 -0.788517 -0.019042 -0.523883 -0.056580 0.401777 0.003697 -0.331078 -0.039285 0.360065 0.338886 -0.787357 0.234754 -0.381063 -0.615236 -0.009938
次 -0.685195 0.507107 1.915603 -0.694160 -0.754926 -0.216793 -0.635127 -0.498385 -0.302336 -0.509839 -2.529679 -1.160982 0.382368 -0.287522 0.764689 -0.257331 -0.115130 -1.261170 -0.027530 0.900122 0.608088 -0.180094 -0.264223 -0.281681 -0.659869 0.646388 0.058554 -0.600636 -0.941816 1.034187 -0.178437 0.868686 0.517747 -1.032582 -0.199772 -0.451826 0.886596 -0.142201 1.422901 -0.741836 0.578877 0.801818 1.143443 -1.360866 -0.374138 1.349408 -0.376994 0.873961 -0.278162 -0.337308 0.782304 -0.420365 0.176968 -0.628316 -0.579380 -0.170874 0.704791 0.016288 0.255461 0.608296 0.249876 0.070382 -0.144208 -0.011163
耳鼻喉 -0.532629 -0.752937 0.089037 1.007639 1.006203 -0.407013 -0.632461 -1.964604 -0.339561 0.407501 -0.823569 -0.211094 1.527972 0.268472 0.057794 -0.041320 -0.933764 0.155445 0.113619 -0.794084 0.190545 -0.107389 -0.101918 0.005545 1.096201 -0.113446 -0.281727 -0.466316 -0.319473 1.121057 0.098529 1.064386 0.105552 0.448993 -0.555795 0.083473 -0.101979 -0.428917 0.699610 0.045114 -0.325245 1.433111 -0.442120 0.073375 -0.081727 -0.113814 0.282661 0.435043 -0.963537 0.856937 0.173225 1.378489 0.000530 -0.864071 -0.296887 0.274376 -0.178891 -0.568506 -0.354244 0.128238 0.795203 0.257063 -0.634193 -0.484522
分 -1.431107 -0.167293 1.560463 -0.762477 -1.360701 0.145981 0.447418 -0.905253 -0.107661 -0.190421 -2.051934 -0.357176 0.452002 0.771740 -0.142324 0.578803 -0.482857 -1.178258 0.611781 0.602054 0.479657 -0.043128 0.580109 0.640127 0.814314 0.021313 0.377030 -0.817917 -1.434960 0.918590 -0.554833 -0.120702 0.367768 -0.026386 0.475809 -0.469897 0.287064 -0.563615 1.682895 -1.336923 0.291273 0.787465 0.894475 -0.730724 -1.098378 0.344358 -0.062144 -0.030160 0.065446 0.008599 1.074005 -0.438962 0.563564 -0.617135 -0.668306 -0.069028 0.486404 -0.117473 0.735925 0.926486 -0.282253 -0.192713 -0.539515 -0.040401
乳腺 -0.353142 0.612425 -0.015042 0.387129 0.480881 1.401729 -0.710914 -1.188040 0.883990 0.262231 -0.550664 0.739279 -0.673586 -0.754421 0.418076 -0.216968 0.081604 0.085322 -0.001644 0.440122 -0.319945 1.084953 0.119290 0.383079 0.408403 0.340495 -0.003111 -0.322328 0.218045 0.896878 -0.466861 0.361341 -0.162377 -0.614542 -0.386554 0.161504 -0.863856 -0.175485 0.535990 -0.135128 -0.714870 1.103720 0.365074 -0.649482 -0.911530 -0.349408 0.498540 -0.012282 0.805910 0.000205 -0.081092 -0.007988 -0.278376 -0.235080 0.051448 0.898327 -0.707960 0.940368 0.327639 -0.422717 -0.067994 0.456604 -0.045114 -0.436131
结石 -0.077864 0.268128 0.490131 1.055458 0.678589 1.232712 -0.300542 -0.000476 -1.462796 -0.005404 -1.129160 -0.178922 0.919249 -0.073313 -0.045793 0.024399 -0.868497 -1.168303 0.343411 -0.506344 -0.304596 0.897064 0.186173 0.947139 0.231611 -0.655650 -0.166365 -0.227215 -1.335944 0.859519 0.942212 0.756741 0.158073 -0.377141 0.662414 0.240671 -0.297040 -0.077208 -0.117224 0.379764 0.928526 0.171536 0.029361 -0.279727 0.782440 0.881384 0.839279 -0.435480 0.170373 0.500069 -0.220859 0.372539 -0.098093 -0.121238 -0.215615 -1.134308 -0.888178 -0.100420 -1.825818 0.240246 0.288584 0.304882 0.109708 -0.575819
光团 -0.258995 -0.382906 -0.211778 -0.360342 0.875526 1.243864 0.640789 -1.729519 -0.000085 -0.137611 -1.114089 0.062829 -0.340004 -0.054664 0.983998 0.901893 -1.021527 0.411716 -0.424801 -0.039226 -0.211199 0.945325 -0.225238 -0.416023 -0.960415 -0.290091 -0.197401 -0.482393 -0.129558 -0.099059 -0.162226 -1.017035 -0.804489 0.244463 0.171514 -0.975887 0.329750 0.722422 -0.923437 -1.042185 -1.137030 1.352048 -0.616021 -0.297661 0.238142 0.281197 -0.255746 -0.054257 0.359189 0.706195 -0.508969 -0.546846 1.632800 0.104826 -0.127219 -0.040061 0.360730 0.590651 -0.534653 0.278983 0.799566 -1.356434 -0.932190 -0.225211
疤痕 -0.279163 -0.188057 -0.054135 0.199718 -0.551019 0.609619 0.594838 -0.934354 -0.931814 -0.978309 -1.819510 -0.166706 0.528261 -1.007628 0.040241 -0.335059 -0.110557 -0.393953 0.853563 -0.290829 -0.126679 1.107417 -0.613938 0.607047 -0.824094 0.284977 -0.521585 0.522883 0.314760 0.259619 -1.330530 0.371218 0.753069 -1.035105 -0.820415 -0.174237 -0.770950 -0.170833 0.284447 0.528747 -0.746250 0.696880 0.684564 0.302433 0.196800 -0.113278 -0.153322 -0.022254 0.320960 -0.163738 -0.198303 -0.101724 0.477840 -0.556290 -0.307400 0.148079 0.192839 -0.522953 -0.271207 0.264059 0.046360 -0.600814 -0.750986 -0.041382
眼科 0.109606 -0.432171 -0.407628 -0.277007 1.078645 -0.095133 0.341921 -1.406948 -0.289914 -0.255208 -1.035475 -0.894275 0.862282 0.769717 0.330446 0.628586 -0.773384 -0.241839 -0.092435 -0.237643 -0.020474 0.439930 0.350260 0.357366 -0.177605 0.164966 0.092223 0.107447 -0.725393 0.480814 -0.240627 0.769992 0.410747 0.162713 -0.790268 -0.074811 1.256274 -0.541620 1.329125 0.346018 0.142325 2.055737 -0.262907 -0.022911 -0.835973 -0.020431 0.581311 -0.390993 -0.205425 -0.985071 0.761966 1.477057 -0.074752 -0.957559 -0.005802 -0.309551 0.791861 0.313723 -0.085415 -0.284954 0.092311 0.862701 -0.229062 -0.802779
脾 -0.003788 0.363158 0.339692 0.811832 0.035200 1.065426 0.297893 -0.796882 0.625065 -0.035043 -1.049992 0.313698 0.354991 -0.046042 1.042672 -0.836311 -1.006225 -0.778913 -0.050955 0.004793 0.689251 0.746790 -0.288646 0.505648 -0.699094 0.095661 1.035849 0.017127 -0.529376 0.407371 -0.067874 0.245089 -0.053967 -0.065881 0.045104 0.246220 -0.794961 1.636539 -0.095556 -0.401098 -0.608213 -0.341671 0.410241 -0.269121 -0.058876 1.299996 -0.160163 0.162148 -0.029333 -0.213049 -0.779609 0.151169 0.153413 -0.595273 0.568219 -0.457917 0.654292 0.064472 -0.750210 -0.328216 -0.426191 -0.095734 0.092168 0.697770
<NUM/2> 0.687181 -0.210069 0.598802 -0.080329 0.388752 0.285033 0.354382 0.020950 -0.196429 0.214969 -0.734083 0.527492 -0.139304 -0.361930 0.524922 0.593391 0.211708 -0.153643 0.008381 0.504562 -0.253898 0.402973 0.243977 0.329046 0.394691 -0.056476 -0.715226 0.430873 -0.962604 0.270387 -0.302237 -0.172422 -0.586330 -0.075868 0.325653 0.441356 -0.328149 -0.429632 0.642941 -0.640027 0.099688 0.498788 0.200952 -0.353674 -0.273452 -0.150142 0.247081 0.485341 -0.552064 -0.192696 -0.335855 -0.487065 0.805553 0.390877 -0.831066 0.540880 0.522450 0.249255 0.552655 -0.680271 0.020405 -0.189161 0.284289 0.323400
欠 0.262498 -0.421064 -0.234194 0.051252 0.479613 0.414167 -0.389321 -0.614252 0.262428 0.296874 -1.015134 -0.097170 -0.416415 0.250551 0.180089 0.609492 0.027170 -0.330675 -0.041248 0.195044 0.020737 -0.656848 -0.484805 0.506455 0.196087 0.326649 -0.229302 -0.028243 0.172231 -0.475540 -0.425458 0.281268 0.050731 -0.165400 0.768469 0.247146 0.146659 -0.408995 0.005893 -0.495837 -0.528454 0.199097 0.154533 -0.142874 0.598093 0.077248 -0.661118 0.411395 0.165219 0.535811 0.212775 -0.273047 -0.004822 -0.226924 0.210848 -0.064644 0.125442 -0.410585 0.634144 -0.083964 -0.229413 -0.288055 -0.009296 0.009458
两侧 -0.131620 -0.213174 0.214624 0.454595 0.334029 0.784034 0.527011 -0.503332 -0.834199 1.001994 -0.340041 -0.612500 0.329458 0.664519 -0.393630 -0.352147 -0.605680 0.484653 -0.730442 -0.766185 -0.029607 -0.177789 0.292988 0.022268 0.243297 -0.817138 -0.119888 0.429430 -1.176355 0.120292 -0.374580 -0.501647 0.303593 -0.305654 -0.185132 1.306815 -0.845999 -0.145514 -0.014765 -0.134008 0.503590 0.564246 0.250347 -0.759111 -0.064569 0.191193 -0.627920 -0.118282 0.390770 -0.339590 0.719876 -0.911581 0.028961 -0.330226 1.079030 -0.634571 -0.471121 -0.326385 -0.933384 0.044260 0.643118 -0.733601 -0.307238 -0.964048
通畅 0.202705 0.584103 -0.171138 1.532134 -0.168941 1.458151 -0.795542 -0.141711 -1.108437 -0.720570 -1.238458 -0.547965 0.291906 0.449951 -0.351981 0.005551 0.267782 0.061933 -0.270212 -0.439044 0.377518 0.506476 0.945067 -0.213018 -0.521767 0.606007 -0.218271 -0.149379 -0.396295 -1.137127 -0.290138 0.113713 -0.801718 -0.169566 0.101511 0.288426 0.698777 -0.855094 0.917487 -0.494164 -0.537859 0.905333 0.009519 -1.570302 0.623956 0.011608 0.045340 1.539856 0.116728 1.152633 0.487298 -1.831925 -0.441230 -0.191213 0.211270 -0.867421 -0.562701 0.593028 -0.688224 0.290989 0.214140 -0.792803 0.080843 0.878747
肝 -1.104027 -0.372318 0.386797 0.547727 0.273061 0.676131 0.203824 -0.780301 0.397244 -0.240017 -0.858636 0.171984 -0.074478 -0.136237 0.714891 0.020092 0.093316 -0.102669 -0.934376 0.262992 -0.231247 -0.124561 1.029892 0.854315 -0.267050 0.105349 0.149312 0.269374 -0.760258 -0.253129 -0.052009 -0.878575 0.136674 0.344608 0.597552 -0.132932 -0.576414 1.341592 -0.289368 0.309558 0.314984 0.064142 -0.359066 0.488274 -0.121838 0.716798 -0.151589 0.097083 0.084828 1.270369 -0.509023 -0.123496 0.109822 -1.127096 -0.516977 0.138722 0.889484 0.386483 -0.335029 -0.734372 0.122189 1.058016 -0.273587 -0.116845
结节 -0.116706 0.224453 -0.202938 -0.108598 0.447922 0.792421 -0.066264 -0.792486 0.540414 0.302781 -0.512675 0.307552 -0.963936 -0.351169 0.485002 0.490717 0.430125 0.044388 0.160874 -0.078762 -0.422979 0.407556 0.203838 -0.158308 0.155779 0.217900 -0.697878 -0.042136 -0.461215 0.352737 -0.646911 -0.125866 -0.148065 -0.443148 0.208673 -0.003062 -0.915047 -0.567229 1.220195 0.170541 -0.059878 0.132935 0.421383 -0.475326 0.015699 0.179836 0.256860 0.215863 0.496106 -0.172957 -0.248322 -0.399610 -0.541960 -0.023601 -0.084118 -0.693257 -0.324723 -0.446818 0.344005 -0.268428 -0.042601 0.006048 0.143977 -0.464577
完整 0.165682 -0.684882 -0.569404 0.039990 0.526442 -0.010481 -0.419179 -0.917278 1.018345 0.332542 -0.690061 -1.244460 -0.283451 0.431823 -0.315736 -0.525451 0.132616 -0.070204 0.239858 -0.623549 0.494166 -0.354137 -0.402285 -0.231471 0.781234 -0.589925 0.157071 0.132615 0.013649 0.341598 -0.196793 -0.521955 -0.606306 -0.004638 -0.278132 1.199058 -0.516852 -0.053873 -0.078964 0.156369 0.425541 0.931206 0.320761 0.130965 0.614688 0.207607 -0.967173 0.705469 -0.492771 -0.096550 -0.041974 -1.285347 0.220652 0.284522 0.544074 0.322283 0.095167 0.097600 0.039824 -0.571324 -0.008235 -1.041334 -0.159664 -0.411266
右侧 -0.082525 -0.078089 -0.257748 0.546444 0.004640 0.625691 -0.005458 0.068672 -0.198137 0.165100 -0.524211 0.175614 0.965291 0.171966 0.082526 0.210383 -0.227436 0.961688 -0.268711 -0.089076 -0.607762 0.026795 -0.233998 -0.707551 0.403371 0.101440 -0.489642 0.220379 0.163715 0.208627 -0.285296 0.010802 0.151667 -0.682302 0.106609 0.895388 -0.509404 -0.382565 0.769151 -0.305884 -0.104146 0.329510 0.051574 0.090310 -0.492694 0.069930 -0.361605 0.160143 0.285822 -0.059962 0.010101 0.121332 -0.484903 -0.767591 -0.144314 0.502282 -0.320769 -0.363183 -0.544333 0.047544 0.532246 0.191859 -0.680457 -0.354335
左侧 -0.013378 -0.135626 -0.229289 0.606245 -0.011383 0.590574 -0.022642 0.103120 -0.187362 0.162473 -0.448857 0.163605 1.009086 0.152192 0.147299 0.242947 -0.173301 0.917377 -0.235023 0.006232 -0.512054 -0.058393 -0.247122 -0.578428 0.412063 0.008169 -0.459324 0.246974 -0.020775 0.196278 -0.329266 0.089361 0.203613 -0.683326 0.005875 0.854360 -0.664111 -0.386984 0.947798 -0.220154 -0.108718 0.336309 0.000267 0.131171 -0.504710 0.253137 -0.406593 0.146289 0.298540 -0.067857 0.053020 0.101124 -0.460250 -0.862751 -0.076944 0.552065 -0.412941 -0.375132 -0.433382 0.040317 0.588349 0.327098 -0.583635 -0.340446
内膜 0.147956 -0.287597 0.063659 0.331894 -0.415696 0.835690 0.091822 -0.743297 0.046698 0.014853 -0.172533 0.183267 -0.048985 -0.162388 -0.280027 0.000079 -0.868527 -0.112012 -0.030527 0.105160 0.199599 -0.259928 -1.101524 -0.303473 0.232054 0.293992 -0.588286 0.267549 -0.156743 0.745012 -0.505746 -0.198325 -0.352149 -0.549683 0.813758 -0.086450 -0.021290 0.093143 0.031380 -0.933198 -0.141585 0.345129 0.575271 -0.529104 0.451290 -0.241117 -0.622262 1.099821 0.306733 0.754860 0.284383 0.336598 0.619697 0.011538 0.060644 -0.129636 0.351107 -0.426314 -0.415893 -0.691641 0.059530 -0.297716 -0.305766 0.274387
- 0.400630 0.270145 1.295634 0.078346 -0.853294 0.124689 0.048857 -0.441849 1.189464 -0.601565 -1.302321 0.018731 0.563931 0.316273 -0.526734 0.247639 0.420999 -0.549015 -1.319026 -0.070215 -0.436760 -0.143796 0.069862 -1.390863 0.865699 -0.373112 -0.335675 -0.623068 -1.368624 0.867247 0.121958 -0.078294 0.636738 0.704740 0.201050 -0.140728 -0.280387 -0.332074 1.238521 -0.302731 -0.035610 -0.081210 0.690216 -0.616656 -1.056800 0.183466 -0.237373 0.348117 -0.353097 0.177679 0.147312 0.183672 0.667264 0.213524 -0.393244 -0.325811 0.340134 0.494802 0.079316 -0.672151 -0.396961 -0.502150 0.374937 -1.486760
多个 0.154211 -0.056185 0.085605 -0.403813 0.224367 0.591421 0.156837 -0.547747 0.231948 -0.321664 -0.270268 0.120945 0.225970 0.007860 -0.131692 0.569327 -0.848178 0.120288 -0.750424 0.122773 -0.098208 0.268889 -0.177742 0.849392 -0.004844 0.826036 -0.721229 -0.202318 -0.059264 0.161980 -1.236314 0.524213 -0.239888 0.344287 0.989431 0.669255 0.386152 0.023591 0.200934 -0.696444 -0.204199 0.341670 0.386776 0.450263 -0.397815 -0.508409 -0.441214 0.672756 -0.473712 0.396799 -0.764157 -0.412264 0.037344 -0.785473 0.247973 -0.365896 -0.034529 -0.476505 0.971836 0.157354 -0.300040 -0.511240 0.134586 -0.472546
咽炎 -0.033119 -0.727574 0.231012 0.513177 0.544249 0.513303 -1.100437 -1.188088 -0.075186 -0.645804 -1.505740 0.385434 1.628447 -0.233010 0.428215 0.842162 -1.050816 0.569019 1.212013 0.016493 -0.154202 0.018845 0.209437 0.440585 0.446847 -0.774519 -0.506134 0.230532 0.087124 0.491935 0.214405 0.242372 -0.147327 1.407209 -0.195962 -0.694462 -0.461764 -0.494071 0.761809 0.150339 0.297640 1.095036 -0.461429 -0.266366 -0.238194 -0.350604 -0.471263 0.621334 0.454203 1.654033 0.658534 0.274867 -0.490651 -0.710249 -0.708930 0.173818 -0.658137 -0.566659 0.351242 0.818947 0.217608 0.388382 0.003880 -0.406018
黏膜 0.391566 0.068456 -0.031246 0.766435 0.310486 0.751615 -1.346018 -1.131404 0.187435 -0.853607 -0.042176 0.111045 1.829313 -0.772854 0.956371 0.406580 -0.536129 -0.581866 0.241602 0.113871 0.671380 0.004144 0.007706 -0.170003 -0.122977 -0.828458 -0.352398 0.018627 0.241095 0.467306 0.630533 0.685309 -0.060786 -0.178496 0.169165 0.266128 -0.755734 -0.049051 0.681334 -0.182224 0.498246 1.058956 -0.139112 0.552136 0.732686 0.102905 -0.416756 0.292213 -0.260828 1.657460 0.307451 0.229611 -0.798791 -1.329238 -0.095245 0.380209 0.112892 0.342941 -0.701103 0.214036 1.574392 -0.673192 -0.373120 -0.737578
史 -0.159308 -0.104409 1.052165 -0.335877 -0.612828 0.559102 0.329486 -0.501268 -1.021285 -1.958307 -1.639576 0.187122 0.280718 -1.307345 0.113944 0.421824 -0.526206 -0.588084 0.053971 -0.011069 0.216492 -0.260662 -0.596816 0.633232 -0.278654 0.206532 -0.384178 -0.242906 -0.341118 -0.533831 0.037349 0.005016 0.748585 0.135296 -0.684188 -0.426041 -0.695613 -0.050246 1.383562 0.174562 0.261379 1.213243 -0.199817 -0.244862 -0.574592 0.252411 -0.765143 -0.392906 -0.813886 0.141103 0.121919 0.562939 -0.858740 -0.756452 0.062953 -0.247726 -0.161839 -0.319769 -0.331276 0.322242 0.385108 0.472300 0.526124 0.188716
肾内 0.068417 -0.209473 -0.743337 0.112313 -0.277466 0.347586 0.274061 -0.204646 -0.320272 -0.296397 -1.575854 0.176077 -1.025806 0.011341 0.953494 -0.107621 -1.703434 0.380805 -0.795703 0.709225 0.529448 0.393575 0.046053 0.600369 0.620129 0.361466 -0.006895 0.128458 0.107791 0.109217 -0.532051 -0.441323 -0.969030 0.084885 0.939171 -0.399773 -0.595437 -0.320783 -0.056433 -1.124435 0.173800 0.284842 0.024306 -0.585020 0.288481 -0.147235 -0.110617 -0.381966 0.479952 -0.083427 0.240452 -0.198509 -0.181604 -0.749524 0.909091 0.028294 0.292580 0.010957 0.357060 0.592835 -0.376515 0.064913 -0.641342 -1.223972
术后 -0.556816 0.232339 0.804671 0.063242 -0.358960 0.549341 0.277683 -0.533367 -0.849262 -1.661282 -1.633112 -0.317205 0.610821 -1.111488 0.392900 -0.408408 0.262604 -0.167250 0.116233 -0.320504 -0.005395 0.442934 -0.531756 0.322009 -0.283545 -0.198043 -0.568347 0.530064 0.341538 0.006508 -1.051432 0.692657 0.695864 -0.499792 -0.036387 0.043561 -0.312853 0.034030 0.952816 -0.438146 0.020782 0.611951 0.188247 -0.109464 0.374983 -0.158005 -0.039831 0.023983 0.131732 -0.448231 0.251124 0.583759 0.320664 -0.511489 0.332515 0.239367 -0.670084 -0.750162 0.001516 0.126103 -0.487000 -0.032395 0.102338 0.074568
充血 -0.157774 -0.472047 -0.054839 0.593799 0.405188 1.216509 -0.648967 -0.527390 -0.173723 -0.853885 -0.792365 -0.476227 1.244197 0.466498 0.074833 1.243518 -1.219636 0.604892 0.275357 -0.418492 -0.184658 1.275482 -0.004708 -0.315291 0.339596 -0.514921 -0.839547 0.001258 0.426047 0.566739 0.836760 0.349199 -0.143515 -0.146198 -0.034125 -0.827955 -0.141831 0.202246 0.745568 -0.279093 -0.507535 0.540201 -0.113531 0.495864 -0.273670 -0.147258 -0.966366 0.061285 0.201782 1.383223 0.648032 -0.105357 -0.302930 -0.539502 -0.700830 0.222852 -0.769047 -1.043971 0.015594 0.086523 0.453162 0.658946 0.465438 -0.804333
眼底 -0.136546 -0.376673 -0.403184 0.525313 0.441390 -0.111924 -0.029188 -1.589006 0.234818 -0.732310 -0.320661 -0.495516 0.003160 -0.087321 -0.151808 0.258336 -1.462685 -0.842068 -0.027178 -0.802671 0.145435 0.662545 0.675306 -0.064165 -0.582357 0.160239 -0.413343 0.535378 0.095412 0.945014 0.549659 0.697069 0.073303 -0.057133 0.231434 0.006952 0.305141 -0.218313 1.579149 0.449420 -0.191499 1.577260 1.100000 0.098026 -0.982996 0.066862 0.034955 -0.565294 0.040508 0.056171 0.745739 1.215201 0.382829 -0.258927 -0.272666 -0.248474 0.959883 0.630096 -0.704822 -0.733754 0.439238 0.520807 -0.262159 -1.601385
小叶 -0.052392 -0.024273 -0.068811 0.276323 0.171755 1.768131 0.028163 -1.048794 0.413275 0.121114 -2.265963 0.292933 0.096315 -0.614031 0.618698 -0.281023 -0.198948 0.994305 0.102006 0.515310 -0.483853 0.274612 0.330072 0.856315 0.147569 0.227267 0.358528 -0.127624 0.187852 0.480197 -0.119055 0.321224 0.431049 -0.640676 0.086386 -0.360772 -1.209644 -0.018540 1.258433 0.420500 -0.209973 1.431989 -0.372803 -0.866946 0.278819 -0.269669 1.000640 0.687347 1.500502 0.041397 0.419748 -0.153828 -0.704325 -0.412786 -0.154599 -0.183283 -0.758937 0.526188 0.721451 -0.273552 0.719403 -0.025292 0.059113 -0.645064
指检 -0.417539 -0.330554 -0.534936 0.183505 0.410091 0.041869 -0.010166 -0.255265 0.468008 -0.571379 -1.235855 -0.301163 0.131041 -0.742343 -0.230587 -0.293960 -0.043166 0.430681 -0.029395 -0.106955 -0.623597 1.686511 -0.187125 0.137437 0.532864 0.220920 0.488367 0.155098 -0.665699 -0.021300 -0.733328 0.893457 0.362626 -0.449633 -0.450982 -0.362394 -1.294370 0.723710 1.178708 -0.118436 -0.213156 0.865071 0.294864 -0.911733 1.009516 -0.043504 -0.072563 0.825690 0.214476 0.154677 0.809868 0.054718 -0.426999 -0.858156 0.116070 0.369466 0.108811 -0.267639 -0.324866 -0.896844 -0.188459 -0.298326 -0.314332 -0.778842
肿大 -0.726570 -0.190541 1.098596 0.175921 -0.480230 0.698781 -0.606892 -0.656231 -0.017957 -0.812234 -0.315303 -0.242913 -0.066209 -0.568418 0.533516 0.590492 -0.070668 0.573646 0.246445 -0.170936 0.138498 0.864376 -0.304364 0.917231 -0.107575 -0.084615 0.054863 -0.796684 0.476558 -0.281489 -0.476767 -0.004535 -0.073621 1.035161 -0.660663 0.578316 -0.014933 -0.569624 1.530402 0.766569 -0.271075 0.883765 -0.955910 -0.900696 -0.504232 -0.197297 -0.079917 0.872264 0.908573 0.687887 0.643191 0.120237 0.095044 -1.004165 -0.008678 -0.450265 0.103360 0.187544 -1.446972 -0.579919 0.855039 -0.646076 -1.442052 -0.707171
附件 0.052035 -0.208174 -0.990081 0.301631 -0.036381 0.661758 -0.242371 -0.291774 0.714951 -0.134635 -1.159168 0.129481 0.393472 -0.317076 0.330725 0.430029 -0.637905 0.187908 -0.312419 0.699893 -0.229643 0.847274 -1.237496 -0.498430 0.851448 0.284864 -0.290820 0.585031 -0.622359 0.121556 -0.557059 1.064521 -0.136643 -1.108814 0.341608 -0.189919 0.360994 0.113641 1.683631 -0.205712 -1.294465 0.155267 0.671710 0.216921 -0.228234 0.610985 -0.582021 0.177787 -0.163800 0.628860 -0.595369 -0.331064 0.251528 0.678020 0.664903 -0.117534 -0.367102 1.018226 -0.125813 -0.310865 0.533853 0.306829 -1.040261 -0.089259
腔 0.335065 -1.281306 -0.083195 0.727069 0.866645 1.408847 -0.200717 0.536912 0.690953 -0.630303 -0.078106 -0.011457 0.596997 1.193222 -0.672896 0.157930 -0.919437 0.347963 0.570682 0.868765 0.600290 -0.548486 0.648337 0.180052 -0.082323 0.098918 -0.066937 -0.828071 -0.711913 0.452225 -0.978241 0.168883 -0.328478 0.487700 -0.417203 0.254573 -1.055084 0.954759 0.652991 0.837351 0.743169 0.559708 0.210007 -0.494147 -0.176505 0.389514 -0.680239 1.717498 -0.443412 0.287764 -0.140719 -0.029835 0.130866 -0.648505 0.150523 -0.199197 -0.145232 0.177322 -0.283463 -0.132325 0.430389 -0.865810 0.063274 -0.018917
静脉 0.095298 -0.182162 -0.467822 0.597554 -0.653899 1.439420 0.138799 -0.185874 0.340730 -0.481668 -1.008212 -0.572349 -0.064435 0.455552 1.191599 -0.333304 0.621370 0.235149 1.153315 0.189658 0.196178 0.798507 -0.635374 1.372427 -0.987471 -0.011831 0.769867 0.613118 -0.641669 0.679539 0.026311 -0.476601 -0.705599 0.156373 0.978564 0.795829 -0.526517 0.887025 -0.079126 -0.599005 0.376207 0.110984 0.622416 0.139178 -0.285966 1.269838 -0.189625 0.246691 0.274109 0.531149 0.133134 0.232968 0.602732 -0.239584 1.010407 -0.547095 0.774905 -0.182414 -1.522159 -0.385259 -0.184241 0.016954 0.529440 -0.740249
骨量 0.519000 -1.153968 -0.084447 0.734883 -0.081054 0.388837 0.128857 -0.097256 0.343439 -0.011575 -0.676387 -0.099888 1.273625 0.457887 -0.091955 0.230771 0.421341 -0.471980 -0.754101 0.128511 1.192072 -0.144082 0.331866 0.288487 1.122169 -1.484344 0.329097 0.386578 -1.262990 1.616124 0.057724 0.467625 0.521893 0.335211 -0.186764 -0.242077 0.707196 -0.352808 1.468128 -0.301912 0.620771 1.575287 -0.328241 -0.986054 -0.351813 -1.504510 0.231123 1.046497 0.223352 -0.415968 -0.152549 -0.731428 0.934825 -0.577629 0.348281 0.798548 0.581097 -0.318541 -0.527908 0.078873 -0.162033 0.078502 -0.363509 -0.670825
